{"learner":{"attributes":{"scikit_learn":"{\"_estimator_type\": \"regressor\"}"},"feature_names":["pm25_1_day_before","pm25_2_days_before","pm25_3_days_before","pm25_average_before","temperature_2m_mean","precipitation_sum","wind_speed_10m_max","wind_direction_10m_dominant"],"feature_types":["float","float","float","float","float","float","float","float"],"gradient_booster":{"model":{"gbtree_model_param":{"num_parallel_tree":"1","num_trees":"100"},"iteration_indptr":[0,1,2,3,4,5,6,7,8,9,10,11,12,13,14,15,16,17,18,19,20,21,22,23,24,25,26,27,28,29,30,31,32,33,34,35,36,37,38,39,40,41,42,43,44,45,46,47,48,49,50,51,52,53,54,55,56,57,58,59,60,61,62,63,64,65,66,67,68,69,70,71,72,73,74,75,76,77,78,79,80,81,82,83,84,85,86,87,88,89,90,91,92,93,94,95,96,97,98,99,100],"tree_info":[0,0,0,0,0,0,0,0,0,0,0,0,0,0,0,0,0,0,0,0,0,0,0,0,0,0,0,0,0,0,0,0,0,0,0,0,0,0,0,0,0,0,0,0,0,0,0,0,0,0,0,0,0,0,0,0,0,0,0,0,0,0,0,0,0,0,0,0,0,0,0,0,0,0,0,0,0,0,0,0,0,0,0,0,0,0,0,0,0,0,0,0,0,0,0,0,0,0,0,0],"trees":[{"base_weights":[7.253138E-8,-5.7001953E0,1.2795237E1,-1.0107615E1,-2.3243291E0,8.644131E0,2.3649584E1,-1.2821358E1,-8.752943E0,-3.9503226E0,1.0670354E0,1.2728666E1,5.473532E0,1.922158E1,3.4196774E1,-8.593168E0,-1.3441324E1,-8.929542E0,-3.0789232E-1,-1.4414613E0,-5.903691E0,5.8875966E0,-3.1661916E-1,1.0200263E0,1.4165211E1,9.35847E0,2.5232255E0,2.2102686E1,1.1474138E1,3.556191E1,1.515339E0,-6.15537E-1,-9.290428E0,-1.3519594E1,-5.2822037E0,-9.912738E0,-7.693547E0,-1.6327438E0,3.8613555E0,5.9938717E0,-1.9561526E0,-4.5280046E0,-7.6832747E0,1.0509401E1,3.4683099E0,2.246491E0,-2.7287848E0,8.208595E0,-2.9292052E0,9.987116E0,1.8810862E1,1.0730068E1,-6.7969674E-1,1.1127989E1,1.0382351E0,2.4403307E1,1.0499787E1,4.3424497E0,1.482286E1,1.7208595E1,3.83774E1,3.115042E-1,-5.8849585E-1,-2.9782028E0,-1.1827438E0,-1.1884959E0,-4.0678706E0,-1.9384959E0,-4.3849584E-1,-2.251452E0,-3.2230294E0,1.515339E0,-2.3691452E0,1.1504173E-2,1.4422563E0,4.0911503E0,-7.5170714E-1,-1.0999918E0,2.9796485E-2,-1.0050179E0,-2.6677587E0,-1.4250668E0,-2.7816732E0,3.784067E-1,4.046091E0,-1.2577438E0,1.3122414E0,-8.181421E-1,1.1369289E0,-8.237513E-2,-2.3670993E0,6.115042E-1,2.6691737E0,-2.7577438E0,-3.9292492E-2,3.9046848E0,2.2594647E0,1.153389E-1,5.8090234E0,3.6661532E0,5.981616E-1,2.315339E0,-9.3929255E-1,3.7098904E0,-1.4884958E0,-7.936408E-2,3.1135464E0,7.4666867E0,2.015339E0,3.6443157E0,-1.6384959E0,-6.548677E-1,4.8922567E0,4.82173E0,7.1533895E-1,6.378407E0,1.415339E0,8.421239E0,1.2879056E1],"categories":[],"categories_nodes":[],"categories_segments":[],"categories_sizes":[],"default_left":[0,0,0,0,0,0,0,0,0,0,0,0,0,0,0,0,0,0,0,0,0,0,0,0,0,0,0,0,0,0,0,0,0,0,0,0,0,0,0,0,0,0,0,0,0,0,0,0,0,0,0,0,0,0,0,0,0,0,0,0,0,0,0,0,0,0,0,0,0,0,0,0,0,0,0,0,0,0,0,0,0,0,0,0,0,0,0,0,0,0,0,0,0,0,0,0,0,0,0,0,0,0,0,0,0,0,0,0,0,0,0,0,0,0,0,0,0,0,0],"id":0,"left_children":[1,3,5,7,9,11,13,15,17,19,21,23,25,27,29,31,33,35,37,39,41,43,45,47,49,51,53,55,57,59,-1,61,63,65,67,69,71,-1,73,75,77,79,81,83,85,87,89,91,93,95,97,99,101,103,105,107,109,111,113,115,117,-1,-1,-1,-1,-1,-1,-1,-1,-1,-1,-1,-1,-1,-1,-1,-1,-1,-1,-1,-1,-1,-1,-1,-1,-1,-1,-1,-1,-1,-1,-1,-1,-1,-1,-1,-1,-1,-1,-1,-1,-1,-1,-1,-1,-1,-1,-1,-1,-1,-1,-1,-1,-1,-1,-1,-1,-1,-1],"loss_changes":[1.22823125E5,1.7310383E4,2.3180438E4,1.7442695E3,3.649192E3,4.8126406E3,6.021211E3,3.1963867E2,5.0432422E2,2.1821172E3,1.4359125E3,2.7440254E3,2.4292026E3,2.0454727E3,1.451668E3,1.2778113E2,1.9908203E1,3.2840625E2,1.9227428E2,7.6562427E2,5.796953E2,5.0026062E2,1.0448147E3,5.634418E2,2.6459902E3,1.27398E3,1.5601393E3,1.7191211E3,6.5209326E2,1.3548477E3,0E0,8.715836E0,3.579773E1,1.5234375E-1,4.0737457E0,2.834121E2,4.3430762E2,0E0,1.7901627E1,8.787111E2,6.507985E2,7.105381E2,4.592915E2,4.235752E2,2.4733734E2,6.3973975E2,1.0999036E3,1.1608307E1,2.2663507E2,4.894702E2,6.8489844E2,1.0303184E3,2.7117932E2,4.1998926E2,1.2925867E3,3.5672266E2,4.3459338E2,8.9443555E2,2.7253027E2,2.5404858E2,3.4340625E2,0E0,0E0,0E0,0E0,0E0,0E0,0E0,0E0,0E0,0E0,0E0,0E0,0E0,0E0,0E0,0E0,0E0,0E0,0E0,0E0,0E0,0E0,0E0,0E0,0E0,0E0,0E0,0E0,0E0,0E0,0E0,0E0,0E0,0E0,0E0,0E0,0E0,0E0,0E0,0E0,0E0,0E0,0E0,0E0,0E0,0E0,0E0,0E0,0E0,0E0,0E0,0E0,0E0,0E0,0E0,0E0,0E0,0E0],"parents":[2147483647,0,0,1,1,2,2,3,3,4,4,5,5,6,6,7,7,8,8,9,9,10,10,11,11,12,12,13,13,14,14,15,15,16,16,17,17,18,18,19,19,20,20,21,21,22,22,23,23,24,24,25,25,26,26,27,27,28,28,29,29,31,31,32,32,33,33,34,34,35,35,36,36,38,38,39,39,40,40,41,41,42,42,43,43,44,44,45,45,46,46,47,47,48,48,49,49,50,50,51,51,52,52,53,53,54,54,55,55,56,56,57,57,58,58,59,59,60,60],"right_children":[2,4,6,8,10,12,14,16,18,20,22,24,26,28,30,32,34,36,38,40,42,44,46,48,50,52,54,56,58,60,-1,62,64,66,68,70,72,-1,74,76,78,80,82,84,86,88,90,92,94,96,98,100,102,104,106,108,110,112,114,116,118,-1,-1,-1,-1,-1,-1,-1,-1,-1,-1,-1,-1,-1,-1,-1,-1,-1,-1,-1,-1,-1,-1,-1,-1,-1,-1,-1,-1,-1,-1,-1,-1,-1,-1,-1,-1,-1,-1,-1,-1,-1,-1,-1,-1,-1,-1,-1,-1,-1,-1,-1,-1,-1,-1,-1,-1,-1,-1],"split_conditions":[2.9E1,1.6E1,4.8E1,1.1E1,2.4E1,1.9019803E2,6.2E1,1.4644169E0,2.0549833E1,1.6375053E1,1.3527572E1,4.3548153E1,1E-1,1.9602652E1,2.3185787E1,1.1200571E1,4.8E1,1.4E1,1.4333333E1,1.1E1,2.4963947E2,2.320667E0,2.246E2,1.2181625E1,3.7E1,2.433664E1,1.3104198E1,2.5949857E2,3.2E1,2.3E1,1.515339E0,1E1,5.4358345E-1,7.908339E0,1.9E1,2.1185832E0,1.0333333E1,-1.6327438E0,1.4E1,1.9866467E2,2E1,4.9999995E0,2.9373333E0,6.049757E1,3.8915005E0,8.1320404E1,7E-1,3.2E1,2.5E1,2.9E1,9.3876505E0,1.5985248E1,2.2047748E2,4.5E1,4.4E1,6.5E1,6.3E1,2.3803596E1,6E1,6.6E1,6.6E1,3.115042E-1,-5.8849585E-1,-2.9782028E0,-1.1827438E0,-1.1884959E0,-4.0678706E0,-1.9384959E0,-4.3849584E-1,-2.251452E0,-3.2230294E0,1.515339E0,-2.3691452E0,1.1504173E-2,1.4422563E0,4.0911503E0,-7.5170714E-1,-1.0999918E0,2.9796485E-2,-1.0050179E0,-2.6677587E0,-1.4250668E0,-2.7816732E0,3.784067E-1,4.046091E0,-1.2577438E0,1.3122414E0,-8.181421E-1,1.1369289E0,-8.237513E-2,-2.3670993E0,6.115042E-1,2.6691737E0,-2.7577438E0,-3.9292492E-2,3.9046848E0,2.2594647E0,1.153389E-1,5.8090234E0,3.6661532E0,5.981616E-1,2.315339E0,-9.3929255E-1,3.7098904E0,-1.4884958E0,-7.936408E-2,3.1135464E0,7.4666867E0,2.015339E0,3.6443157E0,-1.6384959E0,-6.548677E-1,4.8922567E0,4.82173E0,7.1533895E-1,6.378407E0,1.415339E0,8.421239E0,1.2879056E1],"split_indices":[0,0,0,0,0,7,0,4,4,6,6,7,5,6,6,6,2,0,3,1,7,4,7,6,0,6,6,7,2,2,0,0,4,7,1,4,3,0,0,7,0,5,4,7,4,7,5,0,1,1,6,4,7,0,0,1,1,6,0,0,0,0,0,0,0,0,0,0,0,0,0,0,0,0,0,0,0,0,0,0,0,0,0,0,0,0,0,0,0,0,0,0,0,0,0,0,0,0,0,0,0,0,0,0,0,0,0,0,0,0,0,0,0,0,0,0,0,0,0],"split_type":[0,0,0,0,0,0,0,0,0,0,0,0,0,0,0,0,0,0,0,0,0,0,0,0,0,0,0,0,0,0,0,0,0,0,0,0,0,0,0,0,0,0,0,0,0,0,0,0,0,0,0,0,0,0,0,0,0,0,0,0,0,0,0,0,0,0,0,0,0,0,0,0,0,0,0,0,0,0,0,0,0,0,0,0,0,0,0,0,0,0,0,0,0,0,0,0,0,0,0,0,0,0,0,0,0,0,0,0,0,0,0,0,0,0,0,0,0,0,0],"sum_hessian":[1.682E3,1.164E3,5.18E2,5.04E2,6.6E2,3.76E2,1.42E2,1.65E2,3.39E2,4.46E2,2.14E2,1.63E2,2.13E2,1.02E2,4E1,2.3E1,1.42E2,3.32E2,7E0,1.96E2,2.5E2,4.7E1,1.67E2,1.8E1,1.45E2,9.1E1,1.22E2,7.3E1,2.9E1,3.8E1,2E0,2E0,2.1E1,1.4E2,2E0,1.81E2,1.51E2,3E0,4E0,1.2E1,1.84E2,1.43E2,1.07E2,1.5E1,3.2E1,8.1E1,8.6E1,6E0,1.2E1,7.8E1,6.7E1,8E1,1.1E1,1.7E1,1.05E2,6E1,1.3E1,1E1,1.9E1,6E0,3.2E1,1E0,1E0,1.8E1,3E0,1E0,1.39E2,1E0,1E0,4.9E1,1.32E2,2E0,1.49E2,1E0,3E0,6E0,6E0,1E2,8.4E1,1.14E2,2.9E1,3.9E1,6.8E1,4E0,1.1E1,3E0,2.9E1,1.9E1,6.2E1,5.9E1,2.7E1,1E0,5E0,3E0,9E0,3.3E1,4.5E1,2E0,6.5E1,6.8E1,1.2E1,2E0,9E0,1.6E1,1E0,9.3E1,1.2E1,5.8E1,2E0,1.2E1,1E0,7E0,3E0,1.7E1,2E0,4E0,2E0,1.2E1,2E1],"tree_param":{"num_deleted":"0","num_feature":"8","num_nodes":"119","size_leaf_vector":"1"}},{"base_weights":[3.1788215E-2,-3.3905764E0,1.0839622E1,-6.8127713E0,-6.209633E-1,8.270575E0,2.0134867E1,-7.9555745E0,-5.001828E0,-2.299287E0,1.9526862E0,9.421169E0,2.3919776E-1,2.3972221E1,1.3448044E1,-5.8590355E0,-8.517765E0,3.1183336E0,-5.2396235E0,8.9962286E-1,-3.3257062E0,4.1885796E0,-1.8807839E-1,1.0458343E1,3.3195403E0,4.9689684E0,-5.4989033E0,2.8817686E1,1.5614376E1,1.5201696E1,2.730715E0,-6.2810265E-2,-6.8241215E0,-6.942956E0,-9.985976E0,8.277063E0,-2.8199801E0,-3.7089312E0,-6.3278356E0,-3.7601027E-1,4.7900467E0,-1.7272248E0,-5.179086E0,-1.3363825E-1,5.202195E0,1.2271646E0,-3.773376E0,7.301152E0,1.195184E1,5.15644E-1,9.53472E0,1.940673E-1,1.0160309E1,-9.0739565E0,-2.0739596E0,1.0081705E1,3.0355228E1,1.7240248E1,3.9878945E0,6.9690385E0,1.6626457E1,-2.927361E0,2.8093736E0,1.045968E0,-1.2579823E0,-1.7957858E0,-3.1412375E0,-2.1259675E0,1.8449588E0,-3.029891E0,-4.400551E-1,2.95469E0,5.3420335E-1,-1.172576E0,6.6875845E-2,-1.9718183E0,-7.313374E-1,-1.4217522E0,-2.4503427E0,-7.667648E-1,7.945206E-1,2.2296665E0,3.264477E-1,-6.9526595E-1,5.793179E-1,-1.9324795E0,-1.0556809E0,5.784445E-1,-2.3013747E0,-1.9120469E0,1.6419197E0,1.2640073E0,-5.1775163E-1,9.4476044E-1,-1.6641021E0,3.988669E0,1.7065407E0,4.6269593E0,2.9480174E0,-1.8077112E0,1.2262809E0,5.081295E0,1.6860232E0,-1.8208005E0,8.040065E-1,3.9957628E0,3.9072934E-1,-3.2933125E0,9.234089E-1,-1.257591E0,3.918139E-1,8.671364E-1,4.7483187E0,2.4864974E0,9.490627E0,5.4167223E0,3.8420334E-1,2.4915013E0,-6.5843016E-2,1.2200165E-1,3.0445664E0,1.5429851E0,5.230979E0,-1.4907085E0,4.7964594E-1],"categories":[],"categories_nodes":[],"categories_segments":[],"categories_sizes":[],"default_left":[0,0,0,0,0,0,0,0,0,0,0,0,0,0,0,0,0,0,0,0,0,0,0,0,0,0,0,0,0,0,0,0,0,0,0,0,0,0,0,0,0,0,0,0,0,0,0,0,0,0,0,0,0,0,0,0,0,0,0,0,0,0,0,0,0,0,0,0,0,0,0,0,0,0,0,0,0,0,0,0,0,0,0,0,0,0,0,0,0,0,0,0,0,0,0,0,0,0,0,0,0,0,0,0,0,0,0,0,0,0,0,0,0,0,0,0,0,0,0,0,0,0,0,0,0],"id":1,"left_children":[1,3,5,7,9,11,13,15,17,19,21,23,25,27,29,31,33,35,37,39,41,43,45,47,49,51,53,55,57,59,61,63,65,67,69,71,73,75,77,79,81,83,85,87,89,91,93,95,97,99,101,103,105,107,109,111,113,115,117,119,121,123,-1,-1,-1,-1,-1,-1,-1,-1,-1,-1,-1,-1,-1,-1,-1,-1,-1,-1,-1,-1,-1,-1,-1,-1,-1,-1,-1,-1,-1,-1,-1,-1,-1,-1,-1,-1,-1,-1,-1,-1,-1,-1,-1,-1,-1,-1,-1,-1,-1,-1,-1,-1,-1,-1,-1,-1,-1,-1,-1,-1,-1,-1,-1],"loss_changes":[6.228814E4,1.2118331E4,9.504836E3,1.1439902E3,3.062637E3,2.94558E3,1.9100156E3,3.6144336E2,4.4886768E2,1.4115803E3,1.3410139E3,1.7309199E3,1.1400598E3,1.7369023E3,5.97501E2,4.302981E2,5.618867E2,2.3778027E2,3.3965723E2,5.2289026E2,9.538972E2,6.009011E2,7.352962E2,1.0349688E3,7.270058E2,5.6815546E2,2.1382367E2,6.446074E2,3.471167E2,2.2428662E2,2.5262291E2,1.9054663E2,1.3905322E2,2.9740234E2,1.1977637E2,2.3308899E1,1.4121378E1,3.2252368E2,3.2960156E2,5.341957E2,2.4621942E2,3.8456293E2,2.9172607E2,4.3439676E2,3.8292407E2,9.243683E2,5.2087054E2,6.8806885E2,1.0287656E3,7.255935E2,2.8154688E2,2.1868285E2,2.904452E2,2.4199908E2,8.422267E1,1.19535034E2,5.852969E2,2.2416064E2,7.4477486E1,1.2106375E2,1.3358984E2,4.4908394E1,0E0,0E0,0E0,0E0,0E0,0E0,0E0,0E0,0E0,0E0,0E0,0E0,0E0,0E0,0E0,0E0,0E0,0E0,0E0,0E0,0E0,0E0,0E0,0E0,0E0,0E0,0E0,0E0,0E0,0E0,0E0,0E0,0E0,0E0,0E0,0E0,0E0,0E0,0E0,0E0,0E0,0E0,0E0,0E0,0E0,0E0,0E0,0E0,0E0,0E0,0E0,0E0,0E0,0E0,0E0,0E0,0E0,0E0,0E0,0E0,0E0,0E0,0E0],"parents":[2147483647,0,0,1,1,2,2,3,3,4,4,5,5,6,6,7,7,8,8,9,9,10,10,11,11,12,12,13,13,14,14,15,15,16,16,17,17,18,18,19,19,20,20,21,21,22,22,23,23,24,24,25,25,26,26,27,27,28,28,29,29,30,30,31,31,32,32,33,33,34,34,35,35,36,36,37,37,38,38,39,39,40,40,41,41,42,42,43,43,44,44,45,45,46,46,47,47,48,48,49,49,50,50,51,51,52,52,53,53,54,54,55,55,56,56,57,57,58,58,59,59,60,60,61,61],"right_children":[2,4,6,8,10,12,14,16,18,20,22,24,26,28,30,32,34,36,38,40,42,44,46,48,50,52,54,56,58,60,62,64,66,68,70,72,74,76,78,80,82,84,86,88,90,92,94,96,98,100,102,104,106,108,110,112,114,116,118,120,122,124,-1,-1,-1,-1,-1,-1,-1,-1,-1,-1,-1,-1,-1,-1,-1,-1,-1,-1,-1,-1,-1,-1,-1,-1,-1,-1,-1,-1,-1,-1,-1,-1,-1,-1,-1,-1,-1,-1,-1,-1,-1,-1,-1,-1,-1,-1,-1,-1,-1,-1,-1,-1,-1,-1,-1,-1,-1,-1,-1,-1,-1,-1,-1],"split_conditions":[3.3E1,1.7E1,5.3E1,1.4E1,2.5E1,2.9783173E2,1.9866467E2,2.1185832E0,1.0666667E1,1.4113653E1,2.1480249E2,2.2314194E1,1.6575644E1,6E-1,2.4999998E0,1.5273505E1,2.4907835E2,8.879001E0,2.2376671E2,2.8E1,2.1E1,6.049757E1,1.1E0,4.183166E0,2.8112288E1,3.4E1,2.0966715E1,1.030883E1,1.8384108E2,3.1E1,4.9E1,2E1,2.4693481E1,2.9666666E1,1.0999999E1,1.3905509E1,8E0,8.426841E1,9.2915E0,2.1E1,3.4E1,1.8062332E1,2.7E1,1.9164719E1,1.5E1,5.54775E0,1.4154915E1,1.2287555E1,9.597752E0,2.3E1,3.5E1,3.5E1,4.6E1,3.4857693E2,1.9519166E0,6.1E1,2.8625067E1,6.6E1,4E1,6E1,2.4E1,6.1E1,2.8093736E0,1.045968E0,-1.2579823E0,-1.7957858E0,-3.1412375E0,-2.1259675E0,1.8449588E0,-3.029891E0,-4.400551E-1,2.95469E0,5.3420335E-1,-1.172576E0,6.6875845E-2,-1.9718183E0,-7.313374E-1,-1.4217522E0,-2.4503427E0,-7.667648E-1,7.945206E-1,2.2296665E0,3.264477E-1,-6.9526595E-1,5.793179E-1,-1.9324795E0,-1.0556809E0,5.784445E-1,-2.3013747E0,-1.9120469E0,1.6419197E0,1.2640073E0,-5.1775163E-1,9.4476044E-1,-1.6641021E0,3.988669E0,1.7065407E0,4.6269593E0,2.9480174E0,-1.8077112E0,1.2262809E0,5.081295E0,1.6860232E0,-1.8208005E0,8.040065E-1,3.9957628E0,3.9072934E-1,-3.2933125E0,9.234089E-1,-1.257591E0,3.918139E-1,8.671364E-1,4.7483187E0,2.4864974E0,9.490627E0,5.4167223E0,3.8420334E-1,2.4915013E0,-6.5843016E-2,1.2200165E-1,3.0445664E0,1.5429851E0,5.230979E0,-1.4907085E0,4.7964594E-1],"split_indices":[0,0,0,0,0,7,7,4,3,6,7,6,6,5,5,6,7,4,7,2,1,7,5,4,6,2,6,6,7,1,1,2,6,3,5,6,2,7,4,0,1,4,2,6,1,4,6,6,4,2,0,0,2,7,4,0,7,2,1,0,2,0,0,0,0,0,0,0,0,0,0,0,0,0,0,0,0,0,0,0,0,0,0,0,0,0,0,0,0,0,0,0,0,0,0,0,0,0,0,0,0,0,0,0,0,0,0,0,0,0,0,0,0,0,0,0,0,0,0,0,0,0,0,0,0],"split_type":[0,0,0,0,0,0,0,0,0,0,0,0,0,0,0,0,0,0,0,0,0,0,0,0,0,0,0,0,0,0,0,0,0,0,0,0,0,0,0,0,0,0,0,0,0,0,0,0,0,0,0,0,0,0,0,0,0,0,0,0,0,0,0,0,0,0,0,0,0,0,0,0,0,0,0,0,0,0,0,0,0,0,0,0,0,0,0,0,0,0,0,0,0,0,0,0,0,0,0,0,0,0,0,0,0,0,0,0,0,0,0,0,0,0,0,0,0,0,0,0,0,0,0,0,0],"sum_hessian":[1.682E3,1.278E3,4.04E2,5.71E2,7.07E2,3.18E2,8.6E1,3.48E2,2.23E2,4.28E2,2.79E2,2.78E2,4E1,5.3E1,3.3E1,7.6E1,2.72E2,6E0,2.17E2,1.04E2,3.24E2,1.36E2,1.43E2,2.37E2,4.1E1,2.2E1,1.8E1,3.2E1,2.1E1,2.8E1,5E0,1.1E1,6.5E1,1.34E2,1.38E2,3E0,3E0,9.2E1,1.25E2,7.9E1,2.5E1,1.75E2,1.49E2,2.6E1,1.1E2,1.03E2,4E1,7.8E1,1.59E2,2.9E1,1.2E1,1.2E1,1E1,8E0,1E1,3E0,2.9E1,1.8E1,3E0,5E0,2.3E1,3E0,2E0,6E0,5E0,5.5E1,1E1,1.33E2,1E0,1.36E2,2E0,2E0,1E0,2E0,1E0,2.7E1,6.5E1,6.9E1,5.6E1,4.6E1,3.3E1,1.4E1,1.1E1,1.51E2,2.4E1,8.3E1,6.6E1,2.1E1,5E0,2E0,1.08E2,5.1E1,5.2E1,8E0,3.2E1,1.5E1,6.3E1,5.8E1,1.01E2,1E1,1.9E1,3E0,9E0,3E0,9E0,7E0,3E0,7E0,1E0,6E0,4E0,2E0,1E0,2E0,2.7E1,1.7E1,1E0,1E0,2E0,2E0,3E0,2E0,2.1E1,2E0,1E0],"tree_param":{"num_deleted":"0","num_feature":"8","num_nodes":"125","size_leaf_vector":"1"}},{"base_weights":[4.6951562E-2,-2.8492422E0,6.547951E0,-4.7918277E0,-9.738077E-1,4.7571616E0,1.3912237E1,-6.5307937E0,-4.0707955E0,4.3110362E-1,-2.408857E0,7.3467073E0,3.0119205E0,1.1177911E1,1.9725946E1,-4.71574E0,-7.032796E0,-2.5804453E0,-4.707178E0,-2.3143878E0,1.2120262E0,6.3620024E0,-2.7722545E0,-1.4306328E0,8.5425005E0,8.781133E0,2.2222867E0,1.36231785E1,5.821628E0,6.2808113E0,2.1485197E1,-3.24222E0,-5.8243666E0,-6.241548E0,-8.307596E0,3.9198115E-2,-4.2354727E0,-4.0679407E0,-6.930448E0,4.2816515E0,-3.0333695E0,5.9132185E0,6.7409873E-1,3.9053316E0,3.7290716E0,-6.623524E-1,-4.0705805E0,2.8916414E0,-4.9133086E0,5.466726E0,1.1088575E1,1.2151945E1,1.8540994E0,3.1068144E0,-1.446742E0,1.5114086E1,2.731562E0,1.7668141E0,8.591723E0,2.8307443E0,1.032205E0,2.294371E1,6.5075284E-1,-1.0908811E0,5.776025E-1,-1.9209571E0,-6.510849E-2,-1.9807314E0,-1.3356204E0,-2.6000428E0,-7.1074706E-1,4.877757E-1,-1.0005101E0,-1.4157004E0,1.6943374E0,-1.9581047E0,-9.788681E-1,-1.6734921E0,-2.847309E0,-1.1621436E0,1.8859593E0,-1.0981492E0,9.976152E-1,-6.482018E-1,2.8094583E0,-4.3623853E-1,6.246325E-1,3.8950542E-1,2.1151693E0,9.566858E-2,-2.203079E0,-1.0050429E0,-2.000122E0,1.1658044E0,-2.1717016E-1,-2.3682315E0,2.515883E-1,1.284523E0,4.190101E0,2.6410237E-1,3.527216E0,9.697732E-1,4.2539253E0,1.1876187E0,-1.5233468E0,1.3737564E0,-1.2405683E-1,1.835552E0,-9.1301113E-1,5.6848173E0,3.434415E0,-2.5566874E0,2.6812685E0,-9.99828E-2,3.4151576E0,-4.5736733E-1,3.1214452E0,-1.133051E-1,5.7779735E-1,5.1918025E0,8.9009E0],"categories":[],"categories_nodes":[],"categories_segments":[],"categories_sizes":[],"default_left":[0,0,0,0,0,0,0,0,0,0,0,0,0,0,0,0,0,0,0,0,0,0,0,0,0,0,0,0,0,0,0,0,0,0,0,0,0,0,0,0,0,0,0,0,0,0,0,0,0,0,0,0,0,0,0,0,0,0,0,0,0,0,0,0,0,0,0,0,0,0,0,0,0,0,0,0,0,0,0,0,0,0,0,0,0,0,0,0,0,0,0,0,0,0,0,0,0,0,0,0,0,0,0,0,0,0,0,0,0,0,0,0,0,0,0,0,0,0,0,0,0],"id":2,"left_children":[1,3,5,7,9,11,13,15,17,19,21,23,25,27,29,31,33,35,37,39,41,43,45,47,49,51,53,55,57,59,61,63,65,67,69,71,73,75,77,79,81,83,85,-1,87,89,91,93,95,97,99,101,103,105,107,109,111,113,115,-1,117,119,-1,-1,-1,-1,-1,-1,-1,-1,-1,-1,-1,-1,-1,-1,-1,-1,-1,-1,-1,-1,-1,-1,-1,-1,-1,-1,-1,-1,-1,-1,-1,-1,-1,-1,-1,-1,-1,-1,-1,-1,-1,-1,-1,-1,-1,-1,-1,-1,-1,-1,-1,-1,-1,-1,-1,-1,-1,-1,-1],"loss_changes":[3.1706443E4,4.2396523E3,6.77833E3,6.906172E2,1.198612E3,1.8714932E3,1.3850605E3,1.1808838E2,3.7386572E2,6.4815405E2,9.547053E2,1.7755293E3,1.128488E3,8.506162E2,5.983096E2,4.4825928E1,7.725879E1,5.3777814E2,3.7542725E2,3.3073074E2,5.9030554E2,1.6174597E2,7.725376E2,3.303222E2,1.0983926E3,6.779607E2,7.282095E2,7.381582E2,2.5439337E2,7.305716E1,7.1089355E2,4.5690353E1,6.6769165E1,2.420752E1,7.759253E1,2.6776672E2,3.8984387E2,4.2016992E2,1.617168E2,1.3880788E2,2.554253E2,6.8907074E2,6.382992E2,0E0,7.158209E1,7.169409E2,3.0502124E2,3.8765068E1,2.1236444E2,6.3521216E2,5.358408E2,3.158977E2,1.8058214E2,9.3487866E2,5.5009204E2,3.7360254E2,5.6505835E2,2.2595721E2,2.7264734E2,0E0,4.5078316E0,4.3450977E2,0E0,0E0,0E0,0E0,0E0,0E0,0E0,0E0,0E0,0E0,0E0,0E0,0E0,0E0,0E0,0E0,0E0,0E0,0E0,0E0,0E0,0E0,0E0,0E0,0E0,0E0,0E0,0E0,0E0,0E0,0E0,0E0,0E0,0E0,0E0,0E0,0E0,0E0,0E0,0E0,0E0,0E0,0E0,0E0,0E0,0E0,0E0,0E0,0E0,0E0,0E0,0E0,0E0,0E0,0E0,0E0,0E0,0E0,0E0],"parents":[2147483647,0,0,1,1,2,2,3,3,4,4,5,5,6,6,7,7,8,8,9,9,10,10,11,11,12,12,13,13,14,14,15,15,16,16,17,17,18,18,19,19,20,20,21,21,22,22,23,23,24,24,25,25,26,26,27,27,28,28,29,29,30,30,31,31,32,32,33,33,34,34,35,35,36,36,37,37,38,38,39,39,40,40,41,41,42,42,44,44,45,45,46,46,47,47,48,48,49,49,50,50,51,51,52,52,53,53,54,54,55,55,56,56,57,57,58,58,60,60,61,61],"right_children":[2,4,6,8,10,12,14,16,18,20,22,24,26,28,30,32,34,36,38,40,42,44,46,48,50,52,54,56,58,60,62,64,66,68,70,72,74,76,78,80,82,84,86,-1,88,90,92,94,96,98,100,102,104,106,108,110,112,114,116,-1,118,120,-1,-1,-1,-1,-1,-1,-1,-1,-1,-1,-1,-1,-1,-1,-1,-1,-1,-1,-1,-1,-1,-1,-1,-1,-1,-1,-1,-1,-1,-1,-1,-1,-1,-1,-1,-1,-1,-1,-1,-1,-1,-1,-1,-1,-1,-1,-1,-1,-1,-1,-1,-1,-1,-1,-1,-1,-1,-1,-1],"split_conditions":[2.9E1,1.7E1,5.1E1,1.1E1,2.2313316E2,1.8128822E2,6.5E1,3.3290002E0,1.5484185E1,6.781824E1,1.0990322E1,4.7587147E1,1.2324414E1,1.9469975E1,2.3E1,1.9245697E1,2.779983E2,9.597752E0,2.9325446E2,1.030883E1,9.4775003E-1,1.4E1,2.8665001E0,1.3708391E1,3.7E1,3.3E1,3.014784E2,6.5E1,4.9E1,6.6E1,2.3185787E1,1.886139E1,3.076917E0,3.6000001E0,3.5577484E2,2E1,1.0999999E1,1.3E1,8.000001E-1,1.1E1,3.3E1,1.4617523E2,2.1E1,3.9053316E0,3.5E1,1.2000002E0,3.0025632E2,3.7E1,1.5072749E1,1.748402E2,1.7E1,2.300188E2,6E-1,1.15060835E1,1.3104198E1,5.7E1,5.6E1,9.083167E0,1.4357127E2,2.8307443E0,7.5E1,1.0620668E1,6.5075284E-1,-1.0908811E0,5.776025E-1,-1.9209571E0,-6.510849E-2,-1.9807314E0,-1.3356204E0,-2.6000428E0,-7.1074706E-1,4.877757E-1,-1.0005101E0,-1.4157004E0,1.6943374E0,-1.9581047E0,-9.788681E-1,-1.6734921E0,-2.847309E0,-1.1621436E0,1.8859593E0,-1.0981492E0,9.976152E-1,-6.482018E-1,2.8094583E0,-4.3623853E-1,6.246325E-1,3.8950542E-1,2.1151693E0,9.566858E-2,-2.203079E0,-1.0050429E0,-2.000122E0,1.1658044E0,-2.1717016E-1,-2.3682315E0,2.515883E-1,1.284523E0,4.190101E0,2.6410237E-1,3.527216E0,9.697732E-1,4.2539253E0,1.1876187E0,-1.5233468E0,1.3737564E0,-1.2405683E-1,1.835552E0,-9.1301113E-1,5.6848173E0,3.434415E0,-2.5566874E0,2.6812685E0,-9.99828E-2,3.4151576E0,-4.5736733E-1,3.1214452E0,-1.133051E-1,5.7779735E-1,5.1918025E0,8.9009E0],"split_indices":[0,0,0,0,7,7,0,4,6,7,6,7,6,6,2,6,7,4,7,6,4,1,4,6,0,1,7,1,1,0,6,6,4,5,7,2,5,2,5,2,2,7,0,0,2,5,7,1,4,7,2,7,5,4,6,0,2,4,7,0,0,4,0,0,0,0,0,0,0,0,0,0,0,0,0,0,0,0,0,0,0,0,0,0,0,0,0,0,0,0,0,0,0,0,0,0,0,0,0,0,0,0,0,0,0,0,0,0,0,0,0,0,0,0,0,0,0,0,0,0,0],"split_type":[0,0,0,0,0,0,0,0,0,0,0,0,0,0,0,0,0,0,0,0,0,0,0,0,0,0,0,0,0,0,0,0,0,0,0,0,0,0,0,0,0,0,0,0,0,0,0,0,0,0,0,0,0,0,0,0,0,0,0,0,0,0,0,0,0,0,0,0,0,0,0,0,0,0,0,0,0,0,0,0,0,0,0,0,0,0,0,0,0,0,0,0,0,0,0,0,0,0,0,0,0,0,0,0,0,0,0,0,0,0,0,0,0,0,0,0,0,0,0,0,0],"sum_hessian":[1.682E3,1.164E3,5.18E2,5.71E2,5.93E2,4.18E2,1E2,1.65E2,4.06E2,3E2,2.93E2,1.67E2,2.51E2,7E1,3E1,3.8E1,1.27E2,1.23E2,2.83E2,6.6E1,2.34E2,1.1E1,2.82E2,2E1,1.47E2,2.9E1,2.22E2,4.7E1,2.3E1,4E0,2.6E1,1.8E1,2E1,8.2E1,4.5E1,4.8E1,7.5E1,2.22E2,6.1E1,6E0,6E1,2.3E1,2.11E2,2E0,9E0,1.08E2,1.74E2,9E0,1.1E1,6.8E1,7.9E1,1.9E1,1E1,1.79E2,4.3E1,4.1E1,6E0,1E1,1.3E1,2E0,2E0,2.4E1,2E0,1.7E1,1E0,1.8E1,2E0,6.6E1,1.6E1,4.2E1,3E0,3.3E1,1.5E1,7.2E1,3E0,5.3E1,1.69E2,4.2E1,1.9E1,1E0,5E0,5.5E1,5E0,7E0,1.6E1,8.4E1,1.27E2,6E0,3E0,9.5E1,1.3E1,1.38E2,3.6E1,7E0,2E0,7E0,4E0,6.1E1,7E0,5E0,7.4E1,4E0,1.5E1,8E0,2E0,1.26E2,5.3E1,7E0,3.6E1,1.8E1,2.3E1,2E0,4E0,9E0,1E0,2E0,1.1E1,1E0,1E0,1.5E1,9E0],"tree_param":{"num_deleted":"0","num_feature":"8","num_nodes":"121","size_leaf_vector":"1"}},{"base_weights":[5.4180466E-2,-1.6523405E0,5.831324E0,-2.9258556E0,4.2464018E-1,4.880669E0,1.366532E1,-4.020279E0,-2.0855072E0,1.0404211E0,-2.7827287E0,6.840726E0,2.9487247E0,9.088516E-1,1.4296195E1,-4.879277E0,-3.414519E0,-1.0917889E0,-2.9602299E0,4.072679E0,5.768449E-1,-4.0771823E0,8.152478E-1,-8.281103E-1,7.6428657E0,-4.1836452E0,3.7426105E0,-1.4296018E-1,5.519434E-1,1.4878649E1,7.041609E-1,-1.7739912E0,-5.2050586E0,-3.5145473E0,1.3776797E0,-3.343706E0,-3.9335778E-1,3.600945E0,-3.1989121E0,6.7236843E0,3.683102E-1,1.8203562E0,-6.095979E-1,-1.7529628E0,-6.265496E0,3.2984967E0,-2.4945006E0,-2.6352491E0,1.711171E0,9.433154E0,5.1773696E0,-7.2269197E0,5.238135E-1,1.5793966E1,3.1629915E0,1.7740948E1,1.0013071E1,1.2857552E-1,-7.841672E-1,-1.7370297E0,-1.1991948E0,-8.482962E-1,-1.4512196E0,2.76849E-1,-1.1482564E0,2.2781125E-1,-4.6657065E-1,5.5362035E-2,2.347595E0,-6.8366843E-1,-1.2724534E0,8.693833E-1,2.6622696E0,5.0721467E-1,-1.498492E0,-9.90272E-1,8.538452E-1,-2.9712293E-1,1.8575195E0,-1.415954E-1,-2.0394635E0,-2.0609508E0,4.390526E-1,1.9933646E0,-1.5563059E-1,7.067742E-1,-1.2004781E0,6.5998465E-1,-1.2461805E0,1.1415318E0,3.4818325E0,-2.7509563E0,1.7279693E0,-1.1728508E0,-3.1277764E0,1.577932E0,-2.7124453E-1,-2.7587187E-1,5.619846E0,1.5868988E0,3.0685848E-1,5.6676006E0,1.2460831E0,3.4159021E0,8.003769E-2],"categories":[],"categories_nodes":[],"categories_segments":[],"categories_sizes":[],"default_left":[0,0,0,0,0,0,0,0,0,0,0,0,0,0,0,0,0,0,0,0,0,0,0,0,0,0,0,0,0,0,0,0,0,0,0,0,0,0,0,0,0,0,0,0,0,0,0,0,0,0,0,0,0,0,0,0,0,0,0,0,0,0,0,0,0,0,0,0,0,0,0,0,0,0,0,0,0,0,0,0,0,0,0,0,0,0,0,0,0,0,0,0,0,0,0,0,0,0,0,0,0,0,0,0,0],"id":3,"left_children":[1,3,5,7,9,11,13,15,17,19,21,23,25,27,29,31,33,35,37,39,41,43,45,47,49,51,53,-1,-1,55,-1,57,59,61,-1,63,65,67,69,71,73,75,77,79,81,83,85,87,-1,89,91,93,95,97,99,101,103,-1,-1,-1,-1,-1,-1,-1,-1,-1,-1,-1,-1,-1,-1,-1,-1,-1,-1,-1,-1,-1,-1,-1,-1,-1,-1,-1,-1,-1,-1,-1,-1,-1,-1,-1,-1,-1,-1,-1,-1,-1,-1,-1,-1,-1,-1,-1,-1],"loss_changes":[1.6602023E4,3.4398284E3,2.7931143E3,7.328911E2,9.8053845E2,1.28246E3,3.1696387E2,1.6494092E2,3.948745E2,5.824147E2,3.7591693E2,1.0520801E3,1.00655774E3,4.745947E0,2.3650684E2,1.3441968E2,1.8272803E2,3.384114E2,3.9206592E2,5.376402E2,5.3518823E2,2.8909802E2,1.8904456E2,2.1570354E2,6.3091016E2,2.616552E2,1.0537048E3,0E0,0E0,3.3764844E2,0E0,2.8869404E1,6.729736E1,1.7350488E2,0E0,1.0880719E2,2.235097E2,1.2844537E2,2.1574829E2,2.3756079E2,1.786635E2,9.392398E2,4.8787732E2,1.9067697E2,1.5018237E2,1.6949294E2,8.252765E1,1.11942505E2,0E0,1.0320317E3,6.127803E2,7.59765E1,5.8857773E1,3.610564E2,6.86395E2,2.6560352E2,2.1111035E2,0E0,0E0,0E0,0E0,0E0,0E0,0E0,0E0,0E0,0E0,0E0,0E0,0E0,0E0,0E0,0E0,0E0,0E0,0E0,0E0,0E0,0E0,0E0,0E0,0E0,0E0,0E0,0E0,0E0,0E0,0E0,0E0,0E0,0E0,0E0,0E0,0E0,0E0,0E0,0E0,0E0,0E0,0E0,0E0,0E0,0E0,0E0,0E0],"parents":[2147483647,0,0,1,1,2,2,3,3,4,4,5,5,6,6,7,7,8,8,9,9,10,10,11,11,12,12,13,13,14,14,15,15,16,16,17,17,18,18,19,19,20,20,21,21,22,22,23,23,24,24,25,25,26,26,29,29,31,31,32,32,33,33,35,35,36,36,37,37,38,38,39,39,40,40,41,41,42,42,43,43,44,44,45,45,46,46,47,47,49,49,50,50,51,51,52,52,53,53,54,54,55,55,56,56],"right_children":[2,4,6,8,10,12,14,16,18,20,22,24,26,28,30,32,34,36,38,40,42,44,46,48,50,52,54,-1,-1,56,-1,58,60,62,-1,64,66,68,70,72,74,76,78,80,82,84,86,88,-1,90,92,94,96,98,100,102,104,-1,-1,-1,-1,-1,-1,-1,-1,-1,-1,-1,-1,-1,-1,-1,-1,-1,-1,-1,-1,-1,-1,-1,-1,-1,-1,-1,-1,-1,-1,-1,-1,-1,-1,-1,-1,-1,-1,-1,-1,-1,-1,-1,-1,-1,-1,-1,-1],"split_conditions":[3.4E1,2.1E1,6.2E1,1.4E1,2.3664352E1,1.9270543E2,1.3477501E0,1.2333333E1,2.2376671E2,1.1901798E1,2.8036118E1,4.7587147E1,2.6E1,6.6E1,8.7E1,2.837333E0,1.25E1,6.955676E1,1.1659777E1,8.451917E0,2.1567303E2,4E-1,2.9795301E1,5.3E1,3.9E1,2.5416373E2,2.4E1,-1.4296018E-1,5.519434E-1,1.9866467E2,7.041609E-1,1E-1,1.7E0,8.000001E-1,1.3776797E0,-6.4808327E-1,1.6E1,2.9E1,2E-1,9.283539E1,3E1,2.26025E0,2.2608458E1,2.7553526E1,1.3739415E1,9.000001E-1,2.6649997E-1,1.0464797E1,1.711171E0,5.0227504E0,3.6E1,2.0966715E1,1.5E1,9.826088E0,1E-1,1.46102495E1,2.4999998E0,1.2857552E-1,-7.841672E-1,-1.7370297E0,-1.1991948E0,-8.482962E-1,-1.4512196E0,2.76849E-1,-1.1482564E0,2.2781125E-1,-4.6657065E-1,5.5362035E-2,2.347595E0,-6.8366843E-1,-1.2724534E0,8.693833E-1,2.6622696E0,5.0721467E-1,-1.498492E0,-9.90272E-1,8.538452E-1,-2.9712293E-1,1.8575195E0,-1.415954E-1,-2.0394635E0,-2.0609508E0,4.390526E-1,1.9933646E0,-1.5563059E-1,7.067742E-1,-1.2004781E0,6.5998465E-1,-1.2461805E0,1.1415318E0,3.4818325E0,-2.7509563E0,1.7279693E0,-1.1728508E0,-3.1277764E0,1.577932E0,-2.7124453E-1,-2.7587187E-1,5.619846E0,1.5868988E0,3.0685848E-1,5.6676006E0,1.2460831E0,3.4159021E0,8.003769E-2],"split_indices":[0,0,0,0,6,7,4,3,7,6,6,7,3,0,2,4,5,7,6,4,7,5,6,0,1,7,1,0,0,7,0,5,5,5,0,4,1,2,5,7,1,4,6,6,4,5,4,6,0,4,0,6,1,6,5,4,5,0,0,0,0,0,0,0,0,0,0,0,0,0,0,0,0,0,0,0,0,0,0,0,0,0,0,0,0,0,0,0,0,0,0,0,0,0,0,0,0,0,0,0,0,0,0,0,0],"split_type":[0,0,0,0,0,0,0,0,0,0,0,0,0,0,0,0,0,0,0,0,0,0,0,0,0,0,0,0,0,0,0,0,0,0,0,0,0,0,0,0,0,0,0,0,0,0,0,0,0,0,0,0,0,0,0,0,0,0,0,0,0,0,0,0,0,0,0,0,0,0,0,0,0,0,0,0,0,0,0,0,0,0,0,0,0,0,0,0,0,0,0,0,0,0,0,0,0,0,0,0,0,0,0,0,0],"sum_hessian":[1.682E3,1.299E3,3.83E2,8.05E2,4.94E2,3.43E2,4E1,3.48E2,4.57E2,4.15E2,7.9E1,1.69E2,1.74E2,2E0,3.8E1,1.41E2,2.07E2,2.15E2,2.42E2,5.4E1,3.61E2,5.8E1,2.1E1,1.6E1,1.53E2,1.7E1,1.57E2,1E0,1E0,3.6E1,2E0,1.4E1,1.27E2,2.05E2,2E0,5E1,1.65E2,8E0,2.34E2,3.1E1,2.3E1,1.76E2,1.85E2,2.9E1,2.9E1,1.2E1,9E0,1.3E1,3E0,8.7E1,6.6E1,1E1,7E0,6E0,1.51E2,2.1E1,1.5E1,4E0,1E1,8.3E1,4.4E1,1.37E2,6.8E1,5E0,4.5E1,8.3E1,8.2E1,5E0,3E0,1.26E2,1.08E2,1.2E1,1.9E1,1.9E1,4E0,2.9E1,1.47E2,1.76E2,9E0,2.4E1,5E0,2.7E1,2E0,6E0,6E0,2E0,7E0,3E0,1E1,2.5E1,6.2E1,2E0,6.4E1,6E0,4E0,1E0,6E0,1E0,5E0,7.5E1,7.6E1,1.9E1,2E0,1.3E1,2E0],"tree_param":{"num_deleted":"0","num_feature":"8","num_nodes":"105","size_leaf_vector":"1"}},{"base_weights":[4.7920488E-2,-1.0710515E0,4.536987E0,-1.8557779E0,8.067017E-1,3.3398697E0,7.9248295E0,-8.948583E-1,-2.5251076E0,3.7495813E0,3.923937E-1,4.200197E0,2.844465E-1,9.733258E0,4.8195357E0,-2.6903849E0,-1.2116018E-1,-1.7773759E0,-3.5146775E0,5.879656E0,1.0860338E0,-2.3981866E-1,2.2773876E0,6.29664E0,2.4883556E0,-2.2554762E0,3.5241697E0,1.1863281E1,4.8141413E0,2.5052333E0,6.9864717E0,-1.9980704E0,-4.568878E0,-7.900298E-1,1.4905775E0,-1.4616216E0,-4.9062943E0,-4.0080767E0,-1.5595984E0,1.5670183E0,7.6130285E0,-2.101397E0,1.7721859E0,2.9274464E0,-6.145797E-1,6.762095E0,8.589134E-1,9.283722E0,3.5569165E0,3.3121282E-1,6.510091E0,1.9909086E-4,-6.0149517E0,-7.6816994E-1,6.4369407E0,2.5206192E0,1.2919343E1,1.7407807E0,1.0670732E1,-1.7195677E0,4.760931E0,8.3734E0,3.8560677E-1,6.784956E-2,-9.819303E-1,-4.217921E-1,-1.8024217E0,-9.045918E-2,-8.026279E-1,1.6671702E0,-9.5758274E-2,2.2975253E-2,-5.807358E-1,-1.3335143E-1,-1.5661002E0,-8.943827E-1,-1.5042914E0,-9.4797224E-1,3.6532286E-1,1.871314E0,-5.4238445E-1,4.256086E0,1.2755537E0,1.00352E0,-8.9390206E-1,1.8908402E0,-4.356071E-1,1.1361853E-1,-7.78025E-1,2.5627952E0,-2.0306358E0,5.4758716E-1,-1.2943836E0,3.354197E0,1.3013899E0,-8.51273E-2,2.0009742E0,1.0460043E0,-5.633937E-1,2.0864427E0,-1.4916713E0,2.0195088E0,-5.9389937E-1,-3.506035E-1,-2.4876013E0,-1.4144924E0,2.1952443E0,2.4123766E0,4.4285776E-3,2.4071608E0,-2.583481E-1,4.1657953E0,1.4186867E0,2.8410237E0,-1.5763873E-1,3.7796094E0,1.5463543E-1,1.2160968E0,-1.0072143E0,-1.3229868E0,1.798666E0,9.429326E-1,3.2789648E0,-2.3152108E0,1.6977166E0],"categories":[],"categories_nodes":[],"categories_segments":[],"categories_sizes":[],"default_left":[0,0,0,0,0,0,0,0,0,0,0,0,0,0,0,0,0,0,0,0,0,0,0,0,0,0,0,0,0,0,0,0,0,0,0,0,0,0,0,0,0,0,0,0,0,0,0,0,0,0,0,0,0,0,0,0,0,0,0,0,0,0,0,0,0,0,0,0,0,0,0,0,0,0,0,0,0,0,0,0,0,0,0,0,0,0,0,0,0,0,0,0,0,0,0,0,0,0,0,0,0,0,0,0,0,0,0,0,0,0,0,0,0,0,0,0,0,0,0,0,0,0,0,0,0],"id":4,"left_children":[1,3,5,7,9,11,13,15,17,19,21,23,25,27,29,31,33,35,37,39,41,43,45,47,49,51,53,55,57,59,61,63,65,67,69,71,73,75,77,79,81,-1,83,85,87,89,91,93,95,97,99,101,103,105,107,109,111,113,115,117,119,121,123,-1,-1,-1,-1,-1,-1,-1,-1,-1,-1,-1,-1,-1,-1,-1,-1,-1,-1,-1,-1,-1,-1,-1,-1,-1,-1,-1,-1,-1,-1,-1,-1,-1,-1,-1,-1,-1,-1,-1,-1,-1,-1,-1,-1,-1,-1,-1,-1,-1,-1,-1,-1,-1,-1,-1,-1,-1,-1,-1,-1,-1,-1],"loss_changes":[8.458804E3,1.9878054E3,1.3362285E3,6.09397E2,4.837936E2,6.5597144E2,4.4165674E2,5.4423865E2,4.0811548E2,2.716187E2,4.176469E2,6.8414307E2,4.6875287E2,5.086914E2,1.5300543E2,1.44331E2,2.9763925E2,3.099671E2,2.2526123E2,1.8990625E2,1.4009679E2,3.139716E2,5.539988E2,6.789678E2,9.4346857E2,2.713662E2,3.1750967E2,3.3249268E2,3.05414E2,1.797245E2,1.5240479E2,2.5030542E2,1.3266583E2,1.7879115E2,5.979111E2,2.1385132E2,3.831378E1,1.8239185E2,2.2607814E2,1.5314842E2,3.5950635E2,0E0,1.7439757E2,4.230551E2,4.6486258E2,5.637654E2,3.478466E2,3.3615112E2,5.638248E2,5.0846237E2,2.2862427E2,2.9320282E2,1.2273184E2,3.8553903E2,1.544292E2,9.9963715E1,1.956001E2,2.3269028E2,1.10980225E2,7.97979E1,1.6231104E2,1.5284235E2,2.145955E2,0E0,0E0,0E0,0E0,0E0,0E0,0E0,0E0,0E0,0E0,0E0,0E0,0E0,0E0,0E0,0E0,0E0,0E0,0E0,0E0,0E0,0E0,0E0,0E0,0E0,0E0,0E0,0E0,0E0,0E0,0E0,0E0,0E0,0E0,0E0,0E0,0E0,0E0,0E0,0E0,0E0,0E0,0E0,0E0,0E0,0E0,0E0,0E0,0E0,0E0,0E0,0E0,0E0,0E0,0E0,0E0,0E0,0E0,0E0,0E0,0E0,0E0],"parents":[2147483647,0,0,1,1,2,2,3,3,4,4,5,5,6,6,7,7,8,8,9,9,10,10,11,11,12,12,13,13,14,14,15,15,16,16,17,17,18,18,19,19,20,20,21,21,22,22,23,23,24,24,25,25,26,26,27,27,28,28,29,29,30,30,31,31,32,32,33,33,34,34,35,35,36,36,37,37,38,38,39,39,40,40,42,42,43,43,44,44,45,45,46,46,47,47,48,48,49,49,50,50,51,51,52,52,53,53,54,54,55,55,56,56,57,57,58,58,59,59,60,60,61,61,62,62],"right_children":[2,4,6,8,10,12,14,16,18,20,22,24,26,28,30,32,34,36,38,40,42,44,46,48,50,52,54,56,58,60,62,64,66,68,70,72,74,76,78,80,82,-1,84,86,88,90,92,94,96,98,100,102,104,106,108,110,112,114,116,118,120,122,124,-1,-1,-1,-1,-1,-1,-1,-1,-1,-1,-1,-1,-1,-1,-1,-1,-1,-1,-1,-1,-1,-1,-1,-1,-1,-1,-1,-1,-1,-1,-1,-1,-1,-1,-1,-1,-1,-1,-1,-1,-1,-1,-1,-1,-1,-1,-1,-1,-1,-1,-1,-1,-1,-1,-1,-1,-1,-1,-1,-1,-1,-1],"split_conditions":[3.6E1,2.4E1,5.3E1,2.218818E2,1.1901798E1,4.8E1,1.9866467E2,8.1320404E1,9.181083E0,8.451917E0,3.4E1,1E-1,8.000001E-1,9.000001E-1,6.2E1,1.9164719E1,1.9333334E1,2.8999991E0,1.7097748E1,1.9E1,9.889418E0,-1.2480834E0,1.5577228E2,3.4E1,3.7666668E1,5.6E1,4.2E1,1.1200571E1,4.8E0,4.9E1,7E1,4.8331676E0,1.3333333E1,1.8E1,2.1333334E1,1.5629971E1,1.4021525E1,2.638371E2,1.7114204E1,1.0636766E1,1.7E1,-2.101397E0,3E1,2.4E1,2.3889316E2,5.6E1,4.9E1,1.0243583E1,3.8666668E1,2.7E1,4.7E1,4.5E1,1.9100078E2,5.1E1,5.5E1,4.4E1,7.8E1,1.1874544E1,1.46102495E1,5.4E1,9.983106E0,2.7E1,7.4E1,6.784956E-2,-9.819303E-1,-4.217921E-1,-1.8024217E0,-9.045918E-2,-8.026279E-1,1.6671702E0,-9.5758274E-2,2.2975253E-2,-5.807358E-1,-1.3335143E-1,-1.5661002E0,-8.943827E-1,-1.5042914E0,-9.4797224E-1,3.6532286E-1,1.871314E0,-5.4238445E-1,4.256086E0,1.2755537E0,1.00352E0,-8.9390206E-1,1.8908402E0,-4.356071E-1,1.1361853E-1,-7.78025E-1,2.5627952E0,-2.0306358E0,5.4758716E-1,-1.2943836E0,3.354197E0,1.3013899E0,-8.51273E-2,2.0009742E0,1.0460043E0,-5.633937E-1,2.0864427E0,-1.4916713E0,2.0195088E0,-5.9389937E-1,-3.506035E-1,-2.4876013E0,-1.4144924E0,2.1952443E0,2.4123766E0,4.4285776E-3,2.4071608E0,-2.583481E-1,4.1657953E0,1.4186867E0,2.8410237E0,-1.5763873E-1,3.7796094E0,1.5463543E-1,1.2160968E0,-1.0072143E0,-1.3229868E0,1.798666E0,9.429326E-1,3.2789648E0,-2.3152108E0,1.6977166E0],"split_indices":[0,0,0,7,6,1,7,7,4,4,2,5,5,5,0,6,3,5,4,1,4,4,7,1,3,1,0,6,5,1,1,4,3,1,3,6,6,7,6,6,2,0,1,1,7,2,1,4,3,1,1,0,7,2,2,1,3,6,4,0,6,2,1,0,0,0,0,0,0,0,0,0,0,0,0,0,0,0,0,0,0,0,0,0,0,0,0,0,0,0,0,0,0,0,0,0,0,0,0,0,0,0,0,0,0,0,0,0,0,0,0,0,0,0,0,0,0,0,0,0,0,0,0,0,0],"split_type":[0,0,0,0,0,0,0,0,0,0,0,0,0,0,0,0,0,0,0,0,0,0,0,0,0,0,0,0,0,0,0,0,0,0,0,0,0,0,0,0,0,0,0,0,0,0,0,0,0,0,0,0,0,0,0,0,0,0,0,0,0,0,0,0,0,0,0,0,0,0,0,0,0,0,0,0,0,0,0,0,0,0,0,0,0,0,0,0,0,0,0,0,0,0,0,0,0,0,0,0,0,0,0,0,0,0,0,0,0,0,0,0,0,0,0,0,0,0,0,0,0,0,0,0,0],"sum_hessian":[1.682E3,1.347E3,3.35E2,9.5E2,3.97E2,2.49E2,8.6E1,3.91E2,5.59E2,4.8E1,3.49E2,1.94E2,5.5E1,5.3E1,3.3E1,1.17E2,2.74E2,3.2E2,2.39E2,2.6E1,2.2E1,2.62E2,8.7E1,8.6E1,1.08E2,3.1E1,2.4E1,3.6E1,1.7E1,1.7E1,1.6E1,8.7E1,3E1,1.94E2,8E1,2.92E2,2.8E1,1.9E2,4.9E1,8E0,1.8E1,1E0,2.1E1,2.7E1,2.35E2,2E1,6.7E1,4E1,4.6E1,7.1E1,3.7E1,2E1,1.1E1,1E1,1.4E1,4E0,3.2E1,1.2E1,5E0,6E0,1.1E1,1.3E1,3E0,3.2E1,5.5E1,1E1,2E1,1.55E2,3.9E1,2.4E1,5.6E1,6.9E1,2.23E2,2E0,2.6E1,9.6E1,9.4E1,3.1E1,1.8E1,3E0,5E0,5E0,1.3E1,1.6E1,5E0,1.5E1,1.2E1,1.57E2,7.8E1,1.8E1,2E0,5.7E1,1E1,2.8E1,1.2E1,2.1E1,2.5E1,2.9E1,4.2E1,3.6E1,1E0,4E0,1.6E1,4E0,7E0,7E0,3E0,1.1E1,3E0,1E0,3E0,2.8E1,4E0,2E0,1E1,4E0,1E0,1E0,5E0,1E0,1E1,5E0,8E0,1E0,2E0],"tree_param":{"num_deleted":"0","num_feature":"8","num_nodes":"125","size_leaf_vector":"1"}},{"base_weights":[4.8886187E-2,-6.53611E-1,3.7604053E0,-1.4784043E0,4.35484E-1,3.185131E0,8.055723E0,-2.4280062E0,-9.981977E-1,1.0884755E0,-9.5267886E-1,4.811217E0,1.908849E0,9.495161E0,2.7304437E0,-1.4279827E0,-2.9200847E0,1.8198447E0,-1.1626526E0,7.5922203E-1,3.786115E0,6.718483E-1,-2.651893E0,7.6085544E0,2.714593E0,9.262621E-1,4.392656E0,1.2010024E1,3.969276E0,-1.0538952E0,6.7782564E0,-2.5702968E0,-3.4085456E-2,-3.200122E0,-1.8255879E0,-2.414422E-1,3.025929E0,-1.313905E0,2.083927E0,1.0611241E0,-1.9222629E0,5.909894E0,-4.3260312E-1,3.221596E0,-1.9933263E0,1.783039E0,-3.430821E0,7.4814796E-1,1.0461366E1,2.330647E-1,7.1030717E0,-8.34642E-1,3.7286012E0,5.5663214E0,-7.0437884E-1,1.4488347E1,3.660045E0,5.910995E0,6.437874E-2,6.715357E-1,-1.1984833E0,5.307467E-1,2.3574715E0,-8.46622E-1,3.0919564E-1,-6.991632E-1,7.1200544E-1,-7.133782E-1,-1.0784007E0,-3.024058E-1,-1.460299E0,7.107072E-1,-4.1244674E-1,-7.4051745E-2,1.7988313E0,6.6278154E-1,-4.4095656E-1,-6.631411E-2,2.2152052E0,-2.1022661E-1,4.7161615E-1,3.4440116E-3,-1.6925648E0,2.1793497E0,-6.948079E-1,-5.8292276E-1,5.361046E-1,5.1513076E-1,2.2808976E0,-1.2951603E0,1.2872164E0,2.056622E0,-1.6901016E-2,-1.1976949E0,6.7861545E-1,-4.5946398E-1,2.885263E0,4.5467763E0,8.386115E-1,9.1713005E-1,-1.2582173E0,2.7545652E0,-5.4037976E-1,6.927498E-2,-1.5614749E0,2.1588957E0,5.554005E-1,2.4030519E0,1.0068923E0,-1.3358907E0,3.8619378E-1,-8.2764246E-2,4.756689E0,-8.317574E-1,2.6617799E0,1.9244165E0,5.0885415E-1,-7.2236255E-2,1.4698163E-1],"categories":[],"categories_nodes":[],"categories_segments":[],"categories_sizes":[],"default_left":[0,0,0,0,0,0,0,0,0,0,0,0,0,0,0,0,0,0,0,0,0,0,0,0,0,0,0,0,0,0,0,0,0,0,0,0,0,0,0,0,0,0,0,0,0,0,0,0,0,0,0,0,0,0,0,0,0,0,0,0,0,0,0,0,0,0,0,0,0,0,0,0,0,0,0,0,0,0,0,0,0,0,0,0,0,0,0,0,0,0,0,0,0,0,0,0,0,0,0,0,0,0,0,0,0,0,0,0,0,0,0,0,0,0,0,0,0,0,0],"id":5,"left_children":[1,3,5,7,9,11,13,15,17,19,21,23,25,27,29,31,33,35,37,39,41,43,45,47,49,51,53,55,57,59,61,63,65,67,69,71,73,75,77,79,81,83,85,87,89,91,93,95,97,99,101,103,105,107,109,111,113,115,117,-1,-1,-1,-1,-1,-1,-1,-1,-1,-1,-1,-1,-1,-1,-1,-1,-1,-1,-1,-1,-1,-1,-1,-1,-1,-1,-1,-1,-1,-1,-1,-1,-1,-1,-1,-1,-1,-1,-1,-1,-1,-1,-1,-1,-1,-1,-1,-1,-1,-1,-1,-1,-1,-1,-1,-1,-1,-1,-1,-1],"loss_changes":[4.390597E3,1.2726058E3,6.365657E2,3.6511646E2,5.5488306E2,4.8474805E2,2.1170178E2,1.2869458E2,2.5098358E2,3.666196E2,5.4282385E2,5.8930225E2,3.2540628E2,2.8585303E2,1.2968994E2,1.4480884E2,4.932788E1,7.531316E1,2.5219305E2,3.031909E2,4.057398E2,6.927695E2,3.3774854E2,8.5331714E2,6.626427E2,4.8670782E2,2.3124487E2,2.7807544E2,6.785936E1,5.735727E1,7.736511E0,4.8240265E1,2.377315E2,3.7516113E1,9.209041E1,3.8760796E1,1.8617326E2,2.702752E2,2.826133E2,3.0266754E2,2.7339072E2,3.5111084E2,5.7115078E1,3.2971753E2,7.486908E2,1.4033604E2,2.7114575E2,2.978029E2,1.0732751E3,5.129156E2,4.237688E2,2.852657E2,2.3405072E2,1.4054474E2,6.5460625E1,2.4661646E2,1.9225009E2,1.8581543E0,6.374373E-1,0E0,0E0,0E0,0E0,0E0,0E0,0E0,0E0,0E0,0E0,0E0,0E0,0E0,0E0,0E0,0E0,0E0,0E0,0E0,0E0,0E0,0E0,0E0,0E0,0E0,0E0,0E0,0E0,0E0,0E0,0E0,0E0,0E0,0E0,0E0,0E0,0E0,0E0,0E0,0E0,0E0,0E0,0E0,0E0,0E0,0E0,0E0,0E0,0E0,0E0,0E0,0E0,0E0,0E0,0E0,0E0,0E0,0E0,0E0,0E0],"parents":[2147483647,0,0,1,1,2,2,3,3,4,4,5,5,6,6,7,7,8,8,9,9,10,10,11,11,12,12,13,13,14,14,15,15,16,16,17,17,18,18,19,19,20,20,21,21,22,22,23,23,24,24,25,25,26,26,27,27,28,28,29,29,30,30,31,31,32,32,33,33,34,34,35,35,36,36,37,37,38,38,39,39,40,40,41,41,42,42,43,43,44,44,45,45,46,46,47,47,48,48,49,49,50,50,51,51,52,52,53,53,54,54,55,55,56,56,57,57,58,58],"right_children":[2,4,6,8,10,12,14,16,18,20,22,24,26,28,30,32,34,36,38,40,42,44,46,48,50,52,54,56,58,60,62,64,66,68,70,72,74,76,78,80,82,84,86,88,90,92,94,96,98,100,102,104,106,108,110,112,114,116,118,-1,-1,-1,-1,-1,-1,-1,-1,-1,-1,-1,-1,-1,-1,-1,-1,-1,-1,-1,-1,-1,-1,-1,-1,-1,-1,-1,-1,-1,-1,-1,-1,-1,-1,-1,-1,-1,-1,-1,-1,-1,-1,-1,-1,-1,-1,-1,-1,-1,-1,-1,-1,-1,-1,-1,-1,-1,-1,-1,-1],"split_conditions":[3.9E1,2.1E1,6.5E1,1.3666667E1,1.0000001E0,3.9E1,2.1000001E0,1.5141414E1,1.14862E1,3.8E1,2.0482834E2,1E-1,1.2000002E0,6E1,3.1E1,1.2E1,1.5E1,1.5711313E2,1.9843584E1,3.1796265E2,4.9E1,2.7E1,1.4154915E1,3.1935835E0,4.8E1,5.2E1,2.0898611E1,2.2823051E2,1.9083395E1,3.856083E0,6.6E1,1.4759999E1,5E-1,1E1,2E1,6.998334E-1,1.7E1,1.1E1,1E-1,1.2939665E2,2.9E1,3.8E1,4E-1,2.4E1,1.3739415E1,1.6E1,4.2E1,4.9E1,1.3864417E1,3.1E1,8.3E0,5.6E1,5.6E1,2.4E0,-6.4808327E-1,-4.696E0,5.7666668E1,8.7E1,7.8E1,6.715357E-1,-1.1984833E0,5.307467E-1,2.3574715E0,-8.46622E-1,3.0919564E-1,-6.991632E-1,7.1200544E-1,-7.133782E-1,-1.0784007E0,-3.024058E-1,-1.460299E0,7.107072E-1,-4.1244674E-1,-7.4051745E-2,1.7988313E0,6.6278154E-1,-4.4095656E-1,-6.631411E-2,2.2152052E0,-2.1022661E-1,4.7161615E-1,3.4440116E-3,-1.6925648E0,2.1793497E0,-6.948079E-1,-5.8292276E-1,5.361046E-1,5.1513076E-1,2.2808976E0,-1.2951603E0,1.2872164E0,2.056622E0,-1.6901016E-2,-1.1976949E0,6.7861545E-1,-4.5946398E-1,2.885263E0,4.5467763E0,8.386115E-1,9.1713005E-1,-1.2582173E0,2.7545652E0,-5.4037976E-1,6.927498E-2,-1.5614749E0,2.1588957E0,5.554005E-1,2.4030519E0,1.0068923E0,-1.3358907E0,3.8619378E-1,-8.2764246E-2,4.756689E0,-8.317574E-1,2.6617799E0,1.9244165E0,5.0885415E-1,-7.2236255E-2,1.4698163E-1],"split_indices":[0,0,0,3,5,1,5,6,6,3,7,5,5,2,2,0,2,7,4,7,1,1,6,4,0,0,6,7,6,4,0,6,5,1,2,4,0,1,5,7,1,0,5,1,4,1,2,0,4,1,5,1,0,5,4,4,3,2,1,0,0,0,0,0,0,0,0,0,0,0,0,0,0,0,0,0,0,0,0,0,0,0,0,0,0,0,0,0,0,0,0,0,0,0,0,0,0,0,0,0,0,0,0,0,0,0,0,0,0,0,0,0,0,0,0,0,0,0,0],"split_type":[0,0,0,0,0,0,0,0,0,0,0,0,0,0,0,0,0,0,0,0,0,0,0,0,0,0,0,0,0,0,0,0,0,0,0,0,0,0,0,0,0,0,0,0,0,0,0,0,0,0,0,0,0,0,0,0,0,0,0,0,0,0,0,0,0,0,0,0,0,0,0,0,0,0,0,0,0,0,0,0,0,0,0,0,0,0,0,0,0,0,0,0,0,0,0,0,0,0,0,0,0,0,0,0,0,0,0,0,0,0,0,0,0,0,0,0,0,0,0],"sum_hessian":[1.682E3,1.415E3,2.67E2,8.05E2,6.1E2,2.37E2,3E1,2.69E2,5.36E2,4.15E2,1.95E2,1.03E2,1.34E2,2.3E1,7E0,9E1,1.79E2,2.9E1,5.07E2,3.71E2,4.4E1,1E2,9.5E1,4.3E1,6E1,9.7E1,3.7E1,1.5E1,8E0,4E0,3E0,4.9E1,4.1E1,1.41E2,3.8E1,1.1E1,1.8E1,4.85E2,2.2E1,3.34E2,3.7E1,2.9E1,1.5E1,5.1E1,4.9E1,1.4E1,8.1E1,1.3E1,3E1,3.9E1,2.1E1,6E1,3.7E1,3E1,7E0,1.1E1,4E0,5E0,3E0,2E0,2E0,1E0,2E0,4.6E1,3E0,2.1E1,2E1,4.8E1,9.3E1,3.1E1,7E0,3E0,8E0,9E0,9E0,2E1,4.65E2,1.6E1,6E0,7.5E1,2.59E2,2.5E1,1.2E1,2.5E1,4E0,9E0,6E0,3.9E1,1.2E1,3.6E1,1.3E1,3E0,1.1E1,7.4E1,7E0,1.1E1,2E0,1.8E1,1.2E1,2.4E1,1.5E1,1.7E1,4E0,4.9E1,1.1E1,1.2E1,2.5E1,1.3E1,1.7E1,2E0,5E0,1E0,1E1,2E0,2E0,4E0,1E0,2E0,1E0],"tree_param":{"num_deleted":"0","num_feature":"8","num_nodes":"119","size_leaf_vector":"1"}},{"base_weights":[5.1673073E-2,-5.3740406E-1,2.4148407E0,-1.3606759E0,-4.4169843E-2,1.9835769E0,5.648219E0,-1.5139624E0,9.672457E-2,1.8282627E-1,-1.2272292E0,2.3021753E0,-1.4379971E0,4.82071E0,3.0933416E0,-1.6429833E0,-3.5350376E-1,2.5196042E0,-1.6611098E0,-3.1519452E-1,7.4292505E-1,-1.8381828E0,2.408211E0,3.3919086E0,1.2427007E0,8.9491624E-1,-9.363528E0,6.2526116E0,6.15695E-1,-1.2064376E0,-2.2997742E0,-1.7030318E0,1.7249075E0,-9.147013E-1,5.1715584E0,-5.313699E0,-6.7874974E-1,2.2124329E0,-5.249244E-1,5.4859453E-1,5.499194E0,-2.7267666E0,4.1120568E-1,5.224815E0,9.507386E-2,5.0083976E0,1.598891E0,-1.2106925E0,2.4956057E0,4.1402993E0,-3.8922942E0,-3.124568E0,-6.15756E-1,-5.91067E-1,6.847546E0,-9.8649645E-1,4.682974E0,-1.1300948E-1,-6.703836E-1,-5.5576386E-3,-7.6438427E-1,-7.907548E-1,9.987199E-2,7.624692E-1,-3.210129E-1,7.0915604E-1,-7.972469E-1,1.2822041E-1,2.2470636E0,-3.0408156E-1,-1.791299E0,1.1098542E0,-5.218135E-1,-3.635118E-1,1.9559897E0,-3.9366063E-2,-4.583799E-1,2.173025E0,1.3248149E-1,2.3401551E0,-4.8867318E-1,-1.0781254E0,1.2851359E-1,-1.732376E-1,3.2459671E0,7.2658056E-1,1.8667797E0,3.9839435E-1,-8.108208E-1,-2.087379E-1,1.7912079E0,-2.0267195E-1,1.1474712E0,4.823306E-1,-8.424492E-1,1.1905129E0,-1.7510246E-2,4.038163E0,-5.4845813E-4,-1.803208E0,7.044205E-1,5.68891E-1,-8.348711E-1,2.607596E0,1.0188395E0,7.0611763E-1,-5.399753E-1,1.2493429E-1,1.982404E0],"categories":[],"categories_nodes":[],"categories_segments":[],"categories_sizes":[],"default_left":[0,0,0,0,0,0,0,0,0,0,0,0,0,0,0,0,0,0,0,0,0,0,0,0,0,0,0,0,0,0,0,0,0,0,0,0,0,0,0,0,0,0,0,0,0,0,0,0,0,0,0,0,0,0,0,0,0,0,0,0,0,0,0,0,0,0,0,0,0,0,0,0,0,0,0,0,0,0,0,0,0,0,0,0,0,0,0,0,0,0,0,0,0,0,0,0,0,0,0,0,0,0,0,0,0,0,0,0,0],"id":6,"left_children":[1,3,5,7,9,11,13,15,17,19,21,23,25,27,-1,29,31,33,35,37,39,41,43,45,47,49,51,53,55,57,59,61,63,65,67,69,71,73,75,77,79,81,83,85,87,89,91,93,95,97,99,-1,-1,101,103,105,107,-1,-1,-1,-1,-1,-1,-1,-1,-1,-1,-1,-1,-1,-1,-1,-1,-1,-1,-1,-1,-1,-1,-1,-1,-1,-1,-1,-1,-1,-1,-1,-1,-1,-1,-1,-1,-1,-1,-1,-1,-1,-1,-1,-1,-1,-1,-1,-1,-1,-1,-1,-1],"loss_changes":[2.3441816E3,5.4731665E2,4.5732776E2,1.1296326E2,2.2688048E2,3.2816272E2,1.0077869E2,6.784277E1,2.128774E2,1.9800322E2,3.0649432E2,3.1097546E2,4.8910852E2,2.0689117E2,0E0,1.1506702E2,1.3476666E2,1.9599048E2,1.004499E2,2.004861E2,3.056954E2,2.3497736E2,1.2980707E2,3.8037683E2,4.333631E2,3.423782E2,2.4756409E1,1.0990747E2,6.978533E1,2.1158426E2,9.2234375E1,5.5953087E1,4.6087353E1,6.342018E1,1.2879935E2,1.0906418E1,1.1788392E2,4.3563837E2,1.3722073E2,2.2744232E2,2.2595923E2,2.313183E2,3.561317E2,1.0099274E1,4.4982464E1,3.8839246E2,3.3167813E2,2.2063058E2,3.500434E2,5.018979E2,1.3308972E2,0E0,0E0,2.1632956E1,1.2326306E2,2.5972567E1,2.1887794E1,0E0,0E0,0E0,0E0,0E0,0E0,0E0,0E0,0E0,0E0,0E0,0E0,0E0,0E0,0E0,0E0,0E0,0E0,0E0,0E0,0E0,0E0,0E0,0E0,0E0,0E0,0E0,0E0,0E0,0E0,0E0,0E0,0E0,0E0,0E0,0E0,0E0,0E0,0E0,0E0,0E0,0E0,0E0,0E0,0E0,0E0,0E0,0E0,0E0,0E0,0E0,0E0],"parents":[2147483647,0,0,1,1,2,2,3,3,4,4,5,5,6,6,7,7,8,8,9,9,10,10,11,11,12,12,13,13,15,15,16,16,17,17,18,18,19,19,20,20,21,21,22,22,23,23,24,24,25,25,26,26,27,27,28,28,29,29,30,30,31,31,32,32,33,33,34,34,35,35,36,36,37,37,38,38,39,39,40,40,41,41,42,42,43,43,44,44,45,45,46,46,47,47,48,48,49,49,50,50,53,53,54,54,55,55,56,56],"right_children":[2,4,6,8,10,12,14,16,18,20,22,24,26,28,-1,30,32,34,36,38,40,42,44,46,48,50,52,54,56,58,60,62,64,66,68,70,72,74,76,78,80,82,84,86,88,90,92,94,96,98,100,-1,-1,102,104,106,108,-1,-1,-1,-1,-1,-1,-1,-1,-1,-1,-1,-1,-1,-1,-1,-1,-1,-1,-1,-1,-1,-1,-1,-1,-1,-1,-1,-1,-1,-1,-1,-1,-1,-1,-1,-1,-1,-1,-1,-1,-1,-1,-1,-1,-1,-1,-1,-1,-1,-1,-1,-1],"split_conditions":[3.6E1,1.6E1,6.3E1,2.7E1,2.3664352E1,2.433664E1,8.4E1,1.7097748E1,2.3812042E2,2.4E1,1.4383166E1,1.8633232E2,1.15060835E1,1.8782204E1,3.0933416E0,1.0758166E1,2E-1,1.3E1,2.5416373E2,1.1E1,2.281957E1,2.8036118E1,1.8E1,3.9E1,2.7E1,1.0000001E0,4.8E1,3E1,1.3185249E1,4E-1,1.14862E1,1.7227419E1,3.7000003E0,2.9E1,1.5956668E0,1.2E1,2.9E1,6E-1,2.4E1,7.42159E0,2.7E1,2.7421265E2,4.5E1,1.7281082E1,2.5372432E2,4.9743042E1,4.4E1,1E-1,4.5666668E1,2.4E1,4.4E1,-3.124568E0,-6.15756E-1,6.6E1,6.4E1,2.8E1,8E1,-1.1300948E-1,-6.703836E-1,-5.5576386E-3,-7.6438427E-1,-7.907548E-1,9.987199E-2,7.624692E-1,-3.210129E-1,7.0915604E-1,-7.972469E-1,1.2822041E-1,2.2470636E0,-3.0408156E-1,-1.791299E0,1.1098542E0,-5.218135E-1,-3.635118E-1,1.9559897E0,-3.9366063E-2,-4.583799E-1,2.173025E0,1.3248149E-1,2.3401551E0,-4.8867318E-1,-1.0781254E0,1.2851359E-1,-1.732376E-1,3.2459671E0,7.2658056E-1,1.8667797E0,3.9839435E-1,-8.108208E-1,-2.087379E-1,1.7912079E0,-2.0267195E-1,1.1474712E0,4.823306E-1,-8.424492E-1,1.1905129E0,-1.7510246E-2,4.038163E0,-5.4845813E-4,-1.803208E0,7.044205E-1,5.68891E-1,-8.348711E-1,2.607596E0,1.0188395E0,7.0611763E-1,-5.399753E-1,1.2493429E-1,1.982404E0],"split_indices":[0,0,0,1,6,6,0,4,7,0,4,7,4,6,0,4,5,0,7,1,6,6,1,1,2,5,0,1,4,5,6,6,5,1,4,0,1,5,1,6,1,7,2,4,7,7,2,5,3,1,0,0,0,0,1,1,0,0,0,0,0,0,0,0,0,0,0,0,0,0,0,0,0,0,0,0,0,0,0,0,0,0,0,0,0,0,0,0,0,0,0,0,0,0,0,0,0,0,0,0,0,0,0,0,0,0,0,0,0],"split_type":[0,0,0,0,0,0,0,0,0,0,0,0,0,0,0,0,0,0,0,0,0,0,0,0,0,0,0,0,0,0,0,0,0,0,0,0,0,0,0,0,0,0,0,0,0,0,0,0,0,0,0,0,0,0,0,0,0,0,0,0,0,0,0,0,0,0,0,0,0,0,0,0,0,0,0,0,0,0,0,0,0,0,0,0,0,0,0,0,0,0,0,0,0,0,0,0,0,0,0,0,0,0,0,0,0,0,0,0,0],"sum_hessian":[1.682E3,1.347E3,3.35E2,5.04E2,8.43E2,2.97E2,3.8E1,4.56E2,4.8E1,7.08E2,1.35E2,2.72E2,2.5E1,3.4E1,4E0,4.1E2,4.6E1,2E1,2.8E1,3.75E2,3.33E2,1.16E2,1.9E1,1.33E2,1.39E2,2E1,5E0,2.5E1,9E0,2.48E2,1.62E2,2.8E1,1.8E1,9E0,1.1E1,5E0,2.3E1,2.8E1,3.47E2,3.21E2,1.2E1,8.3E1,3.3E1,8E0,1.1E1,6.9E1,6.4E1,4.7E1,9.2E1,1.2E1,8E0,4E0,1E0,2E0,2.3E1,7E0,2E0,1.38E2,1.1E2,1.6E1,1.46E2,1.9E1,9E0,1.4E1,4E0,3E0,6E0,4E0,7E0,1E0,4E0,4E0,1.9E1,1.6E1,1.2E1,2.5E2,9.7E1,4E0,3.17E2,9E0,3E0,6.5E1,1.8E1,3.1E1,2E0,3E0,5E0,8E0,3E0,1E1,5.9E1,3.2E1,3.2E1,1.7E1,3E1,5.8E1,3.4E1,3E0,9E0,6E0,2E0,1E0,1E0,1.4E1,9E0,1E0,6E0,1E0,1E0],"tree_param":{"num_deleted":"0","num_feature":"8","num_nodes":"109","size_leaf_vector":"1"}},{"base_weights":[4.793524E-2,-2.1517442E-1,2.8829286E0,-6.494256E-1,5.8642405E-1,3.0979798E0,-3.6720817E0,-3.587791E-1,-1.2716336E0,4.602156E0,4.7123012E-1,3.8491008E0,1.4434363E0,-1.6172707E0,-2.1877022E-1,-2.1118248E0,-1.6783446E-1,-2.5692084E-1,-1.8452053E0,6.593734E0,1.3841051E0,-2.250837E-2,1.5111177E0,1.1364426E1,3.393873E0,-3.6971677E-2,4.406717E0,-1.9760514E-2,-2.6640728E0,-1.0917681E0,6.442387E-2,5.834855E-1,-3.3393393E0,-1.2478316E0,-2.5246298E0,7.5679564E0,-1.8000728E-1,-4.592018E-1,2.8561509E0,-2.3618956E-1,4.573044E0,2.6180892E0,-6.928057E-2,4.0198812E0,4.8355752E-1,2.2479236E0,6.4993186E0,-3.4239545E0,9.128624E-1,-1.3826222E0,5.96927E0,4.7929704E-1,-1.072238E0,-8.6918926E-1,2.751762E-1,-4.0989688E-1,9.180199E-1,1.14073515E-1,-2.386992E-1,6.2329057E-3,9.7651666E-1,-5.2191293E-1,-1.9563266E0,-2.4985729E-1,-1.2101634E0,-8.2808906E-1,1.6632102E0,2.5719004E0,9.1056484E-1,1.1950771E0,-2.4804097E-1,1.691181E-1,-5.3190315E-1,5.9397906E-1,1.779276E0,1.2687988E0,1.4138982E-1,-4.7393E-1,3.8520908E-1,1.3031108E0,-1.6545612E-1,1.23074576E-1,2.3089862E0,-2.4869546E-1,-1.9822758E0,3.6367963E-3,1.354019E0,-1.12196736E-1,-4.7825107E-1,2.7175276E0,4.111133E-1],"categories":[],"categories_nodes":[],"categories_segments":[],"categories_sizes":[],"default_left":[0,0,0,0,0,0,0,0,0,0,0,0,0,0,0,0,0,0,0,0,0,0,0,0,0,0,0,0,0,0,0,0,0,0,0,0,0,0,0,0,0,0,0,0,0,0,0,0,0,0,0,0,0,0,0,0,0,0,0,0,0,0,0,0,0,0,0,0,0,0,0,0,0,0,0,0,0,0,0,0,0,0,0,0,0,0,0,0,0,0,0],"id":7,"left_children":[1,3,5,7,9,11,13,15,17,19,21,23,25,-1,-1,27,29,31,33,35,37,39,41,43,45,47,49,51,53,55,57,59,61,63,65,67,-1,-1,69,71,73,75,77,-1,-1,79,81,83,85,87,89,-1,-1,-1,-1,-1,-1,-1,-1,-1,-1,-1,-1,-1,-1,-1,-1,-1,-1,-1,-1,-1,-1,-1,-1,-1,-1,-1,-1,-1,-1,-1,-1,-1,-1,-1,-1,-1,-1,-1,-1],"loss_changes":[1.2559939E3,5.367954E2,2.1295776E2,1.8038632E2,2.4855403E2,1.6718799E2,2.1359901E1,2.2826936E2,1.8460535E2,8.7008545E1,2.711264E2,2.864431E2,1.9757181E2,0E0,0E0,7.735501E1,1.3247318E2,3.0244464E2,7.924127E1,6.7615845E1,3.4406635E1,3.5361203E2,2.9758887E2,7.764276E1,3.0923022E2,1.0285483E2,1.4394556E2,9.194362E1,4.6926025E1,1.4552936E2,1.3448972E2,1.3823752E2,1.1589569E2,1.23815414E2,1.9404584E2,1.042392E1,0E0,0E0,2.4055183E1,4.238885E2,4.4595215E1,3.4390607E2,1.471636E2,0E0,0E0,4.0135275E2,1.7181335E2,5.23524E1,8.1023895E1,2.5729513E-1,1.580668E2,0E0,0E0,0E0,0E0,0E0,0E0,0E0,0E0,0E0,0E0,0E0,0E0,0E0,0E0,0E0,0E0,0E0,0E0,0E0,0E0,0E0,0E0,0E0,0E0,0E0,0E0,0E0,0E0,0E0,0E0,0E0,0E0,0E0,0E0,0E0,0E0,0E0,0E0,0E0,0E0],"parents":[2147483647,0,0,1,1,2,2,3,3,4,4,5,5,6,6,7,7,8,8,9,9,10,10,11,11,12,12,15,15,16,16,17,17,18,18,19,19,20,20,21,21,22,22,23,23,24,24,25,25,26,26,27,27,28,28,29,29,30,30,31,31,32,32,33,33,34,34,35,35,38,38,39,39,40,40,41,41,42,42,45,45,46,46,47,47,48,48,49,49,50,50],"right_children":[2,4,6,8,10,12,14,16,18,20,22,24,26,-1,-1,28,30,32,34,36,38,40,42,44,46,48,50,52,54,56,58,60,62,64,66,68,-1,-1,70,72,74,76,78,-1,-1,80,82,84,86,88,90,-1,-1,-1,-1,-1,-1,-1,-1,-1,-1,-1,-1,-1,-1,-1,-1,-1,-1,-1,-1,-1,-1,-1,-1,-1,-1,-1,-1,-1,-1,-1,-1,-1,-1,-1,-1,-1,-1,-1,-1],"split_conditions":[4.8E1,2.5E1,2.0768583E1,2.7102664E2,9.107359E0,1.9469975E1,4.1E1,4.3548153E1,2.4227502E0,3E1,3.4E1,3.4E1,9.083167E0,-1.6172707E0,-2.1877022E-1,-1.2480834E0,1.2E1,6E-1,1.8057508E1,2.0324835E1,3.4E1,2.2072748E1,2.3608865E2,5.6E1,1.6981165E1,1.4357127E2,2.1322214E1,2.2666666E1,1.6993584E1,2.0051916E1,2.2E1,2.3E1,1.5E1,2.7333334E1,4.8E1,1.7335249E1,-1.8000728E-1,-4.592018E-1,3.7E1,1.2414416E1,2.3E1,4.1333332E1,3.8915005E0,4.0198812E0,4.8355752E-1,1.3783817E1,2.2E1,4.6E1,2.9E0,5E1,4.2E1,4.7929704E-1,-1.072238E0,-8.6918926E-1,2.751762E-1,-4.0989688E-1,9.180199E-1,1.14073515E-1,-2.386992E-1,6.2329057E-3,9.7651666E-1,-5.2191293E-1,-1.9563266E0,-2.4985729E-1,-1.2101634E0,-8.2808906E-1,1.6632102E0,2.5719004E0,9.1056484E-1,1.1950771E0,-2.4804097E-1,1.691181E-1,-5.3190315E-1,5.9397906E-1,1.779276E0,1.2687988E0,1.4138982E-1,-4.7393E-1,3.8520908E-1,1.3031108E0,-1.6545612E-1,1.23074576E-1,2.3089862E0,-2.4869546E-1,-1.9822758E0,3.6367963E-3,1.354019E0,-1.12196736E-1,-4.7825107E-1,2.7175276E0,4.111133E-1],"split_indices":[0,0,4,7,6,6,1,7,4,1,2,3,4,0,0,4,2,5,6,4,0,4,7,0,6,7,6,3,4,4,3,0,0,3,2,4,0,0,0,4,2,3,4,0,0,6,2,1,5,0,2,0,0,0,0,0,0,0,0,0,0,0,0,0,0,0,0,0,0,0,0,0,0,0,0,0,0,0,0,0,0,0,0,0,0,0,0,0,0,0,0],"split_type":[0,0,0,0,0,0,0,0,0,0,0,0,0,0,0,0,0,0,0,0,0,0,0,0,0,0,0,0,0,0,0,0,0,0,0,0,0,0,0,0,0,0,0,0,0,0,0,0,0,0,0,0,0,0,0,0,0,0,0,0,0,0,0,0,0,0,0,0,0,0,0,0,0,0,0,0,0,0,0,0,0,0,0,0,0,0,0,0,0,0,0],"sum_hessian":[1.682E3,1.54E3,1.42E2,9.99E2,5.41E2,1.38E2,4E0,6.82E2,3.17E2,1.4E1,5.27E2,9.4E1,4.4E1,2E0,2E0,6.6E1,6.16E2,1.15E2,2.02E2,8E0,6E0,3.58E2,1.69E2,4E0,9E1,3E1,1.4E1,1.4E1,5.2E1,1.23E2,4.93E2,9.1E1,2.4E1,1.09E2,9.3E1,7E0,1E0,2E0,4E0,3.43E2,1.5E1,9.9E1,7E1,3E0,1E0,6.7E1,2.3E1,6E0,2.4E1,3E0,1.1E1,1E1,4E0,4.9E1,3E0,1.16E2,7E0,3.61E2,1.32E2,7.6E1,1.5E1,1.7E1,7E0,9.6E1,1.3E1,9.1E1,2E0,5E0,2E0,3E0,1E0,2.26E2,1.17E2,6E0,9E0,5.6E1,4.3E1,3.3E1,3.7E1,3.8E1,2.9E1,4E0,1.9E1,4E0,2E0,2E1,4E0,1E0,2E0,6E0,5E0],"tree_param":{"num_deleted":"0","num_feature":"8","num_nodes":"91","size_leaf_vector":"1"}},{"base_weights":[4.0744394E-2,-2.3873082E-1,1.5172225E0,1.49185E-1,-6.9610417E-1,2.9885457E0,9.4059134E-1,-6.9246364E-1,6.8250865E-1,4.9707687E-1,-9.535115E-1,-1.0651187E0,4.019714E0,1.3742745E0,-2.3435E0,-1.529482E0,8.6062247E-1,3.7134387E0,3.9963228E-1,1.0907663E0,-2.407171E0,-1.0860878E0,7.604364E-1,-2.7293286E-1,-1.322084E0,1.3512688E0,6.1620393E0,5.0339117E0,6.880795E-1,-6.7635365E0,4.647555E-1,3.811822E-2,-2.2148638E0,-9.1204023E-1,2.9846601E0,8.354729E0,1.1693091E0,1.0497853E0,-4.0755013E-1,-1.2173425E0,2.3557353E0,-2.8644745E0,3.41712E-1,-1.2016219E0,1.4630151E0,-6.200784E-1,2.7836814E0,1.8914795E0,-7.9129153E-1,2.551055E0,-4.6779585E0,1.1198579E1,3.4853446E0,7.183698E0,-9.6979284E-1,-7.8268075E0,9.830538E-1,-2.2588518E0,-9.536734E-2,-5.7243776E0,3.2357473E0,4.565492E-1,-5.8819586E-1,-5.863817E-1,-1.8306414E0,-7.1799856E-1,3.8585198E-1,5.489483E-1,2.8461828E0,3.7946186E0,1.3691278E0,1.2166557E0,-1.3092071E-2,7.7376217E-1,-1.0269269E-1,-1.7497135E0,-6.967485E-2,-1.0558759E0,2.7198923E-1,9.904663E-1,4.714401E-2,-4.2626478E-2,-1.1701849E0,-3.1660253E-1,-1.3993498E0,1.0530111E0,-7.6740813E-1,4.7157805E-2,-8.934272E-1,2.1765609E0,3.5810986E-1,1.3668537E-1,7.144804E-1,-3.8836035E-1,1.6164838E-1,-5.887129E-1,1.3574882E0,-2.3147786E0,-2.4200821E-2,4.8433237E0,1.3158948E0,-2.6358378E-1,1.2551607E0,2.3343334E0,-6.250729E-1,-1.6582787E0,8.6112237E-1,-2.8935757E0,-8.295393E-2,6.7842025E-1,-1.09236926E-1,-1.9052256E0,-4.8283198E-1,1.6131226E0,-5.5675364E-1],"categories":[],"categories_nodes":[],"categories_segments":[],"categories_sizes":[],"default_left":[0,0,0,0,0,0,0,0,0,0,0,0,0,0,0,0,0,0,0,0,0,0,0,0,0,0,0,0,0,0,0,0,0,0,0,0,0,0,0,0,0,0,0,0,0,0,0,0,0,0,0,0,0,0,0,0,0,0,0,0,0,0,0,0,0,0,0,0,0,0,0,0,0,0,0,0,0,0,0,0,0,0,0,0,0,0,0,0,0,0,0,0,0,0,0,0,0,0,0,0,0,0,0,0,0,0,0,0,0,0,0,0,0,0,0],"id":8,"left_children":[1,3,5,7,9,11,13,15,17,19,21,23,25,27,29,31,33,35,37,39,41,43,45,47,-1,49,51,53,55,57,59,61,63,65,67,69,71,73,75,77,79,81,-1,83,85,87,89,91,93,95,97,99,101,103,105,107,109,-1,-1,111,113,-1,-1,-1,-1,-1,-1,-1,-1,-1,-1,-1,-1,-1,-1,-1,-1,-1,-1,-1,-1,-1,-1,-1,-1,-1,-1,-1,-1,-1,-1,-1,-1,-1,-1,-1,-1,-1,-1,-1,-1,-1,-1,-1,-1,-1,-1,-1,-1,-1,-1,-1,-1,-1,-1],"loss_changes":[6.9483374E2,2.5133392E2,2.2456305E2,3.4475674E2,2.0011075E2,3.1778223E2,2.7952612E2,3.887049E2,4.0148386E2,2.0263535E2,1.2239343E2,4.115477E1,3.34674E2,4.2846695E2,2.88633E2,2.0851886E2,3.9806836E2,4.625525E2,2.266132E2,2.8607724E2,3.5696648E1,1.4812854E2,1.10657776E2,1.72039E1,0E0,2.1447969E2,4.0585132E2,3.5544708E2,3.7439847E2,4.2040924E1,2.757732E2,1.8091985E2,1.2465161E2,1.919371E2,3.4309274E2,1.7017218E2,9.4699295E1,5.0973764E2,1.8218378E2,1.743376E2,1.3048758E2,5.0219772E1,0E0,2.3619513E2,1.900643E2,4.445569E1,1.0509366E2,1.0261402E0,8.730009E0,2.2269774E2,6.920967E1,2.9980103E2,7.378757E1,1.2694043E2,1.5588947E2,6.598193E1,2.453701E2,0E0,0E0,2.6663055E0,1.2990948E2,0E0,0E0,0E0,0E0,0E0,0E0,0E0,0E0,0E0,0E0,0E0,0E0,0E0,0E0,0E0,0E0,0E0,0E0,0E0,0E0,0E0,0E0,0E0,0E0,0E0,0E0,0E0,0E0,0E0,0E0,0E0,0E0,0E0,0E0,0E0,0E0,0E0,0E0,0E0,0E0,0E0,0E0,0E0,0E0,0E0,0E0,0E0,0E0,0E0,0E0,0E0,0E0,0E0,0E0],"parents":[2147483647,0,0,1,1,2,2,3,3,4,4,5,5,6,6,7,7,8,8,9,9,10,10,11,11,12,12,13,13,14,14,15,15,16,16,17,17,18,18,19,19,20,20,21,21,22,22,23,23,25,25,26,26,27,27,28,28,29,29,30,30,31,31,32,32,33,33,34,34,35,35,36,36,37,37,38,38,39,39,40,40,41,41,43,43,44,44,45,45,46,46,47,47,48,48,49,49,50,50,51,51,52,52,53,53,54,54,55,55,56,56,59,59,60,60],"right_children":[2,4,6,8,10,12,14,16,18,20,22,24,26,28,30,32,34,36,38,40,42,44,46,48,-1,50,52,54,56,58,60,62,64,66,68,70,72,74,76,78,80,82,-1,84,86,88,90,92,94,96,98,100,102,104,106,108,110,-1,-1,112,114,-1,-1,-1,-1,-1,-1,-1,-1,-1,-1,-1,-1,-1,-1,-1,-1,-1,-1,-1,-1,-1,-1,-1,-1,-1,-1,-1,-1,-1,-1,-1,-1,-1,-1,-1,-1,-1,-1,-1,-1,-1,-1,-1,-1,-1,-1,-1,-1,-1,-1,-1,-1,-1,-1],"split_conditions":[3.9E1,2.3920512E2,1.4357127E2,1.4617523E2,-6.4808327E-1,4.9743042E1,1.7539415E1,1.3864417E1,1.5982925E2,7E-1,1.8062332E1,2.1322214E1,1.4154915E1,1.2979984E1,4.1E1,1.3324863E1,2E-1,6.439417E0,1.1720666E1,-4.2772503E0,4.9E1,3.7333332E1,2.5E1,3.1666666E1,-1.322084E0,1.3783817E1,1.6055355E1,2.5949857E2,-2.8314164E0,2.0288164E1,1.8743586E1,6.5185833E0,1.1299999E1,2.7E1,3.1E1,4E-1,1.6E1,8E-1,1.1962333E1,3.1005508E2,3.1551706E2,1.6E1,3.41712E-1,3.4333332E1,4.9E1,2.7333334E1,1.9E1,2.3E1,1.886139E1,4.3E1,4.8E1,3.8E1,-6.4808327E-1,5.5E1,1.1753877E1,4.5E1,4.3E1,-2.2588518E0,-9.536734E-2,5.1E1,2.2985252E1,4.565492E-1,-5.8819586E-1,-5.863817E-1,-1.8306414E0,-7.1799856E-1,3.8585198E-1,5.489483E-1,2.8461828E0,3.7946186E0,1.3691278E0,1.2166557E0,-1.3092071E-2,7.7376217E-1,-1.0269269E-1,-1.7497135E0,-6.967485E-2,-1.0558759E0,2.7198923E-1,9.904663E-1,4.714401E-2,-4.2626478E-2,-1.1701849E0,-3.1660253E-1,-1.3993498E0,1.0530111E0,-7.6740813E-1,4.7157805E-2,-8.934272E-1,2.1765609E0,3.5810986E-1,1.3668537E-1,7.144804E-1,-3.8836035E-1,1.6164838E-1,-5.887129E-1,1.3574882E0,-2.3147786E0,-2.4200821E-2,4.8433237E0,1.3158948E0,-2.6358378E-1,1.2551607E0,2.3343334E0,-6.250729E-1,-1.6582787E0,8.6112237E-1,-2.8935757E0,-8.295393E-2,6.7842025E-1,-1.09236926E-1,-1.9052256E0,-4.8283198E-1,1.6131226E0,-5.5675364E-1],"split_indices":[0,7,7,7,4,7,4,4,7,5,4,6,6,6,1,6,5,4,4,4,2,3,0,3,0,6,6,7,4,6,4,4,5,0,3,5,1,5,4,7,7,2,0,3,1,3,1,1,6,0,0,2,4,2,6,0,1,0,0,0,4,0,0,0,0,0,0,0,0,0,0,0,0,0,0,0,0,0,0,0,0,0,0,0,0,0,0,0,0,0,0,0,0,0,0,0,0,0,0,0,0,0,0,0,0,0,0,0,0,0,0,0,0,0,0],"split_type":[0,0,0,0,0,0,0,0,0,0,0,0,0,0,0,0,0,0,0,0,0,0,0,0,0,0,0,0,0,0,0,0,0,0,0,0,0,0,0,0,0,0,0,0,0,0,0,0,0,0,0,0,0,0,0,0,0,0,0,0,0,0,0,0,0,0,0,0,0,0,0,0,0,0,0,0,0,0,0,0,0,0,0,0,0,0,0,0,0,0,0,0,0,0,0,0,0,0,0,0,0,0,0,0,0,0,0,0,0,0,0,0,0,0,0],"sum_hessian":[1.682E3,1.415E3,2.67E2,7.66E2,6.49E2,7.4E1,1.93E2,2.97E2,4.69E2,1.15E2,5.34E2,1.5E1,5.9E1,1.71E2,2.2E1,1.93E2,1.04E2,3.9E1,4.3E2,9.6E1,1.9E1,4.96E2,3.8E1,1.3E1,2E0,2.7E1,3.2E1,2.6E1,1.45E2,8E0,1.4E1,5.9E1,1.34E2,5.7E1,4.7E1,1.3E1,2.6E1,2.38E2,1.92E2,3.4E1,6.2E1,1.7E1,2E0,4.75E2,2.1E1,2.3E1,1.5E1,2E0,1.1E1,2.3E1,4E0,1E1,2.2E1,1.9E1,7E0,4E0,1.41E2,7E0,1E0,4E0,1E1,3.4E1,2.5E1,1.27E2,7E0,3.4E1,2.3E1,4.1E1,6E0,5E0,8E0,7E0,1.9E1,1.13E2,1.25E2,5E0,1.87E2,1.6E1,1.8E1,4.3E1,1.9E1,5E0,1.2E1,4.57E2,1.8E1,1.4E1,7E0,1.8E1,5E0,3E0,1.2E1,1E0,1E0,8E0,3E0,7E0,1.6E1,2E0,2E0,5E0,5E0,3E0,1.9E1,1.8E1,1E0,3E0,4E0,3E0,1E0,7.2E1,6.9E1,3E0,1E0,7E0,3E0],"tree_param":{"num_deleted":"0","num_feature":"8","num_nodes":"115","size_leaf_vector":"1"}},{"base_weights":[3.153712E-2,-6.2343374E-2,2.5288568E0,-2.610709E-2,-3.9451325E0,-4.0755528E-1,4.1957445E0,-3.0057797E-1,5.269955E-1,2.2769513E0,-6.414704E0,-1.8641436E0,4.0301356E0,7.1972756E0,2.2269962E0,2.218153E-1,-6.393133E-1,2.221095E0,2.7918872E-1,3.3074696E-2,1.1285533E0,-2.3022006E0,-3.3687465E0,-4.401512E-1,-5.4784937E0,-1.8230897E-1,5.0792413E0,1.0300422E1,3.9840198E0,9.613349E-1,3.7504437E0,-2.954228E-1,3.0319161E0,-4.0818763E-1,-1.8554654E0,5.0900683E0,8.309141E-1,1.1253535E0,-4.5978373E-1,8.7202266E-2,-7.231865E-2,-1.4740931E0,4.2162612E-1,-2.0982158E0,2.9640083E0,-2.056415E0,3.9596558E-3,1.6928356E0,4.2375985E-1,3.6852112E0,1.0682774E0,5.921955E-1,5.5812325E0,-1.2244205E0,1.867466E0,4.6385374E0,-1.6398557E-1,-1.3252194E-1,8.022347E-1,3.2434988E-1,1.920204E0,-6.58492E-2,-4.4016308E-1,-4.2393264E-1,-1.5387322E0,2.8147855E-1,2.3676667E0,-5.077752E-1,7.3667645E-1,2.2890182E-1,1.2067611E0,2.8466147E-1,-3.612764E-1,-2.2047587E-1,-7.732492E-1,1.6253914E0,-1.4338723E-1,2.8114587E-1,-6.640148E-2,1.9939051E0,6.9019973E-1,-9.4557E-2,-5.176533E-1,8.205915E-1,-1.0052348E-1,5.2622956E-1,1.9785808E0,-1.3470612E-1,6.0912613E-2],"categories":[],"categories_nodes":[],"categories_segments":[],"categories_sizes":[],"default_left":[0,0,0,0,0,0,0,0,0,0,0,0,0,0,0,0,0,0,0,0,0,0,0,0,0,0,0,0,0,0,0,0,0,0,0,0,0,0,0,0,0,0,0,0,0,0,0,0,0,0,0,0,0,0,0,0,0,0,0,0,0,0,0,0,0,0,0,0,0,0,0,0,0,0,0,0,0,0,0,0,0,0,0,0,0,0,0,0,0],"id":9,"left_children":[1,3,5,7,9,11,13,15,17,19,21,23,25,27,29,31,33,35,37,39,-1,-1,41,43,45,-1,47,49,51,53,55,57,59,61,63,65,67,69,71,-1,-1,-1,-1,73,75,-1,-1,-1,-1,-1,-1,77,79,81,83,85,87,-1,-1,-1,-1,-1,-1,-1,-1,-1,-1,-1,-1,-1,-1,-1,-1,-1,-1,-1,-1,-1,-1,-1,-1,-1,-1,-1,-1,-1,-1,-1,-1],"loss_changes":[3.9473633E2,2.2824963E2,3.002848E2,2.4442159E2,2.450942E2,1.5618219E2,2.1443286E2,1.905433E2,2.235581E2,1.6535156E1,1.6341675E1,9.0231155E1,3.2280083E1,1.08530945E2,4.4598785E1,6.17176E2,1.8279047E2,2.669812E2,2.92529E2,2.8192315E-1,0E0,0E0,4.3783703E1,8.523956E1,3.787944E1,0E0,2.3611298E0,4.9837402E1,4.545201E1,3.199528E1,3.900084E1,1.571646E2,4.2680652E2,1.09582954E2,1.4335617E2,2.4854303E2,1.968498E2,2.2578436E2,2.6331842E2,0E0,0E0,0E0,0E0,4.6397743E0,4.4821846E1,0E0,0E0,0E0,0E0,0E0,0E0,1.3299655E0,5.6740875E0,1.7341709E0,2.1942528E1,3.9227905E1,4.0501696E-1,0E0,0E0,0E0,0E0,0E0,0E0,0E0,0E0,0E0,0E0,0E0,0E0,0E0,0E0,0E0,0E0,0E0,0E0,0E0,0E0,0E0,0E0,0E0,0E0,0E0,0E0,0E0,0E0,0E0,0E0,0E0,0E0],"parents":[2147483647,0,0,1,1,2,2,3,3,4,4,5,5,6,6,7,7,8,8,9,9,10,10,11,11,12,12,13,13,14,14,15,15,16,16,17,17,18,18,19,19,22,22,23,23,24,24,26,26,27,27,28,28,29,29,30,30,31,31,32,32,33,33,34,34,35,35,36,36,37,37,38,38,43,43,44,44,51,51,52,52,53,53,54,54,55,55,56,56],"right_children":[2,4,6,8,10,12,14,16,18,20,22,24,26,28,30,32,34,36,38,40,-1,-1,42,44,46,-1,48,50,52,54,56,58,60,62,64,66,68,70,72,-1,-1,-1,-1,74,76,-1,-1,-1,-1,-1,-1,78,80,82,84,86,88,-1,-1,-1,-1,-1,-1,-1,-1,-1,-1,-1,-1,-1,-1,-1,-1,-1,-1,-1,-1,-1,-1,-1,-1,-1,-1,-1,-1,-1,-1,-1,-1],"split_conditions":[5.2666668E1,5.9E1,1.5484185E1,2.6333334E1,1.44E1,7.4E1,5.6E1,2.0895903E2,2.6E1,4E1,8.451917E0,6.2333332E1,3.4E1,1.8782204E1,5E-1,1.9392032E2,2.2666666E1,3E1,1E-1,3.8E1,1.1285533E0,-2.3022006E0,6.1E1,6.0666668E1,6.5E1,-1.8230897E-1,7.9E1,5.4666668E1,1.9813087E1,5.3E1,7.2E1,3.3E1,2.1E1,2.9999993E0,3.5E1,1.44E1,2.8E1,5.1E1,2.9373333E0,8.7202266E-2,-7.231865E-2,-1.4740931E0,4.2162612E-1,4.9E1,6.4E1,-2.056415E0,3.9596558E-3,1.6928356E0,4.2375985E-1,3.6852112E0,1.0682774E0,5.6E1,2.1791153E1,5E1,7.8E1,4.306083E0,3E1,-1.3252194E-1,8.022347E-1,3.2434988E-1,1.920204E0,-6.58492E-2,-4.4016308E-1,-4.2393264E-1,-1.5387322E0,2.8147855E-1,2.3676667E0,-5.077752E-1,7.3667645E-1,2.2890182E-1,1.2067611E0,2.8466147E-1,-3.612764E-1,-2.2047587E-1,-7.732492E-1,1.6253914E0,-1.4338723E-1,2.8114587E-1,-6.640148E-2,1.9939051E0,6.9019973E-1,-9.4557E-2,-5.176533E-1,8.205915E-1,-1.0052348E-1,5.2622956E-1,1.9785808E0,-1.3470612E-1,6.0912613E-2],"split_indices":[3,1,6,3,6,1,2,7,1,0,4,3,0,6,5,7,3,2,5,0,0,0,1,3,0,0,1,3,6,0,1,0,0,5,0,6,3,0,4,0,0,0,0,0,2,0,0,0,0,0,0,0,6,0,3,4,0,0,0,0,0,0,0,0,0,0,0,0,0,0,0,0,0,0,0,0,0,0,0,0,0,0,0,0,0,0,0,0,0],"split_type":[0,0,0,0,0,0,0,0,0,0,0,0,0,0,0,0,0,0,0,0,0,0,0,0,0,0,0,0,0,0,0,0,0,0,0,0,0,0,0,0,0,0,0,0,0,0,0,0,0,0,0,0,0,0,0,0,0,0,0,0,0,0,0,0,0,0,0,0,0,0,0,0,0,0,0,0,0,0,0,0,0,0,0,0,0,0,0,0,0],"sum_hessian":[1.682E3,1.622E3,6E1,1.608E3,1.4E1,2.2E1,3.8E1,1.075E3,5.33E2,4E0,1E1,1.7E1,5E0,1.4E1,2.4E1,4.23E2,6.52E2,6.7E1,4.66E2,2E0,2E0,6E0,4E0,1.3E1,4E0,1E0,4E0,6E0,8E0,1.4E1,1E1,3.58E2,6.5E1,5.49E2,1.03E2,2.1E1,4.6E1,2.17E2,2.49E2,1E0,1E0,3E0,1E0,9E0,4E0,3E0,1E0,3E0,1E0,4E0,2E0,3E0,5E0,4E0,1E1,8E0,2E0,3.42E2,1.6E1,4.2E1,2.3E1,4.67E2,8.2E1,9.2E1,1.1E1,9E0,1.2E1,1.8E1,2.8E1,1.94E2,2.3E1,8.6E1,1.63E2,3E0,6E0,2E0,2E0,2E0,1E0,3E0,2E0,2E0,2E0,7E0,3E0,4E0,4E0,1E0,1E0],"tree_param":{"num_deleted":"0","num_feature":"8","num_nodes":"89","size_leaf_vector":"1"}},{"base_weights":[2.9819917E-2,-4.2117435E-2,1.9433364E0,-7.40059E-1,9.7708344E-2,-2.6919654E-1,3.1983342E0,8.050484E-1,-7.883954E-1,2.30454E-1,-8.661028E-1,-1.3917989E0,3.1434765E0,5.548249E0,1.6604524E0,-2.3045179E-1,-1.0692071E0,1.7518255E-1,3.8195062E0,-3.7632196E0,-3.6683398E-1,5.292638E-1,-2.9815755E0,-1.5496273E-1,3.9787889E0,7.889365E0,3.110908E0,6.801252E-1,2.846312E0,7.8038394E-1,-7.403773E-1,-9.176798E-1,-2.4502783E0,1.1464376E0,5.1976364E-2,6.78181E0,1.7732035E0,-6.166199E0,1.8135146E0,4.406371E0,-8.0461574E-1,-1.1970762E0,2.9864578E0,-1.4787326E0,-1.7985895E0,1.3119478E0,3.6019593E-1,2.8007603E0,8.5462195E-1,1.1485907E0,1.5829972E0,-9.795364E-1,1.3726872E0,4.2299476E0,9.8829144E-1,9.390987E-2,1.511395E0,-2.828601E-1,1.0466136E0,-8.2998586E-1,-2.3335128E-1,-1.6961436E0,-4.0798897E-1,7.099249E-1,-1.0709304E-1,2.8466413E-2,-1.005584E0,8.786599E-1,2.3211644E0,-4.20222E-2,1.6904331E0,-4.5852265E-1,-2.2426927E0,1.5748547E0,-8.8045967E-1,2.1099455E0,-7.816435E-1,-9.838607E-1,-1.43294E-1,-6.481823E-1,-5.254755E-2,9.9739455E-2,1.6422656E0,-1.1577044E-1,-6.1717534E-1,-1.4800587E-1,8.8649565E-1,-4.9102622E-1,-1.2181307E-1,6.051862E-1,-7.790537E-2,5.1882364E-2,1.5020282E0,6.062134E-1,-9.928894E-3],"categories":[],"categories_nodes":[],"categories_segments":[],"categories_sizes":[],"default_left":[0,0,0,0,0,0,0,0,0,0,0,0,0,0,0,0,0,0,0,0,0,0,0,0,0,0,0,0,0,0,0,0,0,0,0,0,0,0,0,0,0,0,0,0,0,0,0,0,0,0,0,0,0,0,0,0,0,0,0,0,0,0,0,0,0,0,0,0,0,0,0,0,0,0,0,0,0,0,0,0,0,0,0,0,0,0,0,0,0,0,0,0,0,0,0],"id":10,"left_children":[1,3,5,7,9,11,13,-1,15,17,19,21,23,25,27,29,31,33,35,37,39,41,43,-1,45,47,49,51,53,55,57,59,61,63,65,67,69,71,73,75,77,79,81,83,-1,-1,-1,-1,-1,85,-1,87,89,91,93,-1,-1,-1,-1,-1,-1,-1,-1,-1,-1,-1,-1,-1,-1,-1,-1,-1,-1,-1,-1,-1,-1,-1,-1,-1,-1,-1,-1,-1,-1,-1,-1,-1,-1,-1,-1,-1,-1,-1,-1],"loss_changes":[2.3175235E2,1.5846124E2,1.702412E2,4.696135E1,1.7330478E2,9.248981E1,1.3172916E2,0E0,4.1743042E1,2.3539365E2,2.3583568E2,5.6551125E1,2.0398766E1,6.104837E1,2.712741E1,4.748381E1,3.5001495E1,1.4030704E2,9.7086334E1,3.3280118E2,2.9818216E2,4.1752586E1,3.642607E1,0E0,2.2742462E-1,2.444345E1,3.2188263E1,1.8585876E1,2.4098633E1,6.010654E1,5.5526546E1,3.973471E1,5.1689667E1,2.4295035E2,1.5252095E2,3.1065674E0,8.944843E1,9.181378E1,1.4593013E2,2.393478E2,1.03632416E2,5.5294504E0,2.4590012E1,4.2638874E0,0E0,0E0,0E0,0E0,0E0,1.925384E1,0E0,1.2199545E0,1.2098356E1,1.8043327E1,6.393883E0,0E0,0E0,0E0,0E0,0E0,0E0,0E0,0E0,0E0,0E0,0E0,0E0,0E0,0E0,0E0,0E0,0E0,0E0,0E0,0E0,0E0,0E0,0E0,0E0,0E0,0E0,0E0,0E0,0E0,0E0,0E0,0E0,0E0,0E0,0E0,0E0,0E0,0E0,0E0,0E0],"parents":[2147483647,0,0,1,1,2,2,3,3,4,4,5,5,6,6,8,8,9,9,10,10,11,11,12,12,13,13,14,14,15,15,16,16,17,17,18,18,19,19,20,20,21,21,22,22,24,24,25,25,26,26,27,27,28,28,29,29,30,30,31,31,32,32,33,33,34,34,35,35,36,36,37,37,38,38,39,39,40,40,41,41,42,42,43,43,49,49,51,51,52,52,53,53,54,54],"right_children":[2,4,6,8,10,12,14,-1,16,18,20,22,24,26,28,30,32,34,36,38,40,42,44,-1,46,48,50,52,54,56,58,60,62,64,66,68,70,72,74,76,78,80,82,84,-1,-1,-1,-1,-1,86,-1,88,90,92,94,-1,-1,-1,-1,-1,-1,-1,-1,-1,-1,-1,-1,-1,-1,-1,-1,-1,-1,-1,-1,-1,-1,-1,-1,-1,-1,-1,-1,-1,-1,-1,-1,-1,-1,-1,-1,-1,-1,-1,-1],"split_conditions":[5.2666668E1,1.3666667E1,1.5484185E1,1.2623573E1,2.433664E1,7.4E1,5.6E1,8.050484E-1,1.5141414E1,2.3893261E1,1.88097E2,1.5339368E2,3.4E1,1.8782204E1,5E-1,1.0620668E1,1.5E1,1.1901798E1,2.1E1,2.4E1,1.9976585E2,1.2939665E2,6.2E1,-1.5496273E-1,7.9E1,5.4666668E1,7.2E1,5.3E1,2.0898611E1,1.6E1,8.400001E0,8E0,8E0,9.483167E0,5.9E1,1.6666666E1,3.1E0,1.7E1,3.1E1,2.8E1,-1.0224999E-1,9E-1,6.1E1,4.9E1,-1.7985895E0,1.3119478E0,3.6019593E-1,2.8007603E0,8.5462195E-1,1.8000002E0,1.5829972E0,5.9E1,7.8E1,3.9E1,8E-1,9.390987E-2,1.511395E0,-2.828601E-1,1.0466136E0,-8.2998586E-1,-2.3335128E-1,-1.6961436E0,-4.0798897E-1,7.099249E-1,-1.0709304E-1,2.8466413E-2,-1.005584E0,8.786599E-1,2.3211644E0,-4.20222E-2,1.6904331E0,-4.5852265E-1,-2.2426927E0,1.5748547E0,-8.8045967E-1,2.1099455E0,-7.816435E-1,-9.838607E-1,-1.43294E-1,-6.481823E-1,-5.254755E-2,9.9739455E-2,1.6422656E0,-1.1577044E-1,-6.1717534E-1,-1.4800587E-1,8.8649565E-1,-4.9102622E-1,-1.2181307E-1,6.051862E-1,-7.790537E-2,5.1882364E-2,1.5020282E0,6.062134E-1,-9.928894E-3],"split_indices":[3,3,6,7,6,1,2,0,6,6,7,7,0,6,5,4,1,6,1,2,7,7,1,0,1,3,0,0,6,0,5,3,2,4,1,3,5,1,3,2,4,5,1,0,0,0,0,0,0,5,0,2,3,0,5,0,0,0,0,0,0,0,0,0,0,0,0,0,0,0,0,0,0,0,0,0,0,0,0,0,0,0,0,0,0,0,0,0,0,0,0,0,0,0,0],"split_type":[0,0,0,0,0,0,0,0,0,0,0,0,0,0,0,0,0,0,0,0,0,0,0,0,0,0,0,0,0,0,0,0,0,0,0,0,0,0,0,0,0,0,0,0,0,0,0,0,0,0,0,0,0,0,0,0,0,0,0,0,0,0,0,0,0,0,0,0,0,0,0,0,0,0,0,0,0,0,0,0,0,0,0,0,0,0,0,0,0,0,0,0,0,0,0],"sum_hessian":[1.682E3,1.622E3,6E1,2.7E2,1.352E3,2.2E1,3.8E1,3E0,2.67E2,1.189E3,1.63E2,1.7E1,5E0,1.4E1,2.4E1,9E1,1.77E2,1.172E3,1.7E1,2.3E1,1.4E2,8E0,9E0,1E0,4E0,6E0,8E0,1.4E1,1E1,3E1,6E1,1.61E2,1.6E1,1.31E2,1.041E3,6E0,1.1E1,1.6E1,7E0,1.1E1,1.29E2,5E0,3E0,7E0,2E0,3E0,1E0,4E0,2E0,5E0,3E0,4E0,1E1,5E0,5E0,2.8E1,2E0,5.8E1,2E0,1E1,1.51E2,3E0,1.3E1,7.2E1,5.9E1,1.029E3,1.2E1,2E0,4E0,8E0,3E0,4E0,1.2E1,4E0,3E0,8E0,3E0,1.4E1,1.15E2,2E0,3E0,2E0,1E0,3E0,4E0,3E0,2E0,1E0,3E0,7E0,3E0,1E0,4E0,2E0,3E0],"tree_param":{"num_deleted":"0","num_feature":"8","num_nodes":"95","size_leaf_vector":"1"}},{"base_weights":[2.7257202E-2,-2.1068452E-1,4.483066E-1,-2.6719108E-1,3.3250587E0,5.121163E-1,-6.039288E0,-3.5979956E-2,-8.898051E-1,1.4276671E0,2.2779794E0,6.837028E-1,-8.479202E-1,-2.3846955E0,-4.4397888E-1,-1.6360143E-1,1.5423058E0,-5.0585394E0,-7.366499E-1,-2.5523758E-1,2.9066195E0,2.3027049E-1,1.2952242E0,-1.6938146E0,8.8073504E-1,-1.9757564E-1,4.713842E0,6.471518E0,9.5518166E-1,-1.1030262E0,-2.2535133E0,-5.259271E-1,-2.8481266E0,2.8678322E-1,-2.7926973E-1,3.4733741E0,-7.408619E-2,3.7138504E-1,-4.5148125E0,5.4618926E0,8.0110097E-1,3.4000583E0,-2.2598991E0,1.9364892E0,-2.4333167E0,-2.5990859E-2,-6.185898E-1,3.4873564E0,-1.1304355E0,3.5291052E0,2.6535445E-1,-7.5607356E-3,8.132639E-1,-5.168611E-1,2.0645243E-1,6.0366213E-1,-2.1494332E-1,-1.2431244E0,1.2691116E-1,1.0363684E-1,1.2089599E0,7.507274E-2,1.282195E0,-4.1589424E-1,-1.5631874E0,3.0497305E0,4.127567E-1,-5.67331E-1,3.0707902E-1,1.886986E0,-1.869568E-1,-4.8607522E-1,-1.3275747E0,1.6243541E0,-2.3070827E-1,-1.1341628E0,-2.4437042E-1],"categories":[],"categories_nodes":[],"categories_segments":[],"categories_sizes":[],"default_left":[0,0,0,0,0,0,0,0,0,0,0,0,0,0,0,0,0,0,0,0,0,0,0,0,0,0,0,0,0,0,0,0,0,0,0,0,0,0,0,0,0,0,0,0,0,0,0,0,0,0,0,0,0,0,0,0,0,0,0,0,0,0,0,0,0,0,0,0,0,0,0,0,0,0,0,0,0],"id":11,"left_children":[1,3,5,7,9,11,13,15,17,19,-1,21,23,-1,-1,25,27,29,31,33,35,37,39,41,43,45,47,49,51,53,-1,55,57,-1,-1,59,-1,61,63,65,67,69,71,73,75,-1,-1,-1,-1,-1,-1,-1,-1,-1,-1,-1,-1,-1,-1,-1,-1,-1,-1,-1,-1,-1,-1,-1,-1,-1,-1,-1,-1,-1,-1,-1,-1],"loss_changes":[1.6870618E2,2.1586536E2,2.5478754E2,1.5256058E2,1.2683313E2,1.4129814E2,4.0478012E1,1.5615384E2,1.795126E2,3.3098045E1,0E0,1.4832576E2,1.0092549E2,0E0,0E0,1.19743484E2,1.6167397E2,8.874991E1,1.2219432E2,6.6183286E0,1.3368877E1,2.0858319E2,4.6504175E2,1.4032768E2,8.518505E1,1.4729431E2,3.3688306E2,1.6699892E2,9.129501E1,6.7369614E0,0E0,1.2428701E2,1.077077E2,0E0,0E0,9.0518265E0,0E0,1.4123444E2,1.2368042E1,4.472984E2,1.24731476E2,6.205364E1,5.100261E1,1.7354126E2,1.0005409E1,0E0,0E0,0E0,0E0,0E0,0E0,0E0,0E0,0E0,0E0,0E0,0E0,0E0,0E0,0E0,0E0,0E0,0E0,0E0,0E0,0E0,0E0,0E0,0E0,0E0,0E0,0E0,0E0,0E0,0E0,0E0,0E0],"parents":[2147483647,0,0,1,1,2,2,3,3,4,4,5,5,6,6,7,7,8,8,9,9,11,11,12,12,15,15,16,16,17,17,18,18,19,19,20,20,21,21,22,22,23,23,24,24,25,25,26,26,27,27,28,28,29,29,31,31,32,32,35,35,37,37,38,38,39,39,40,40,41,41,42,42,43,43,44,44],"right_children":[2,4,6,8,10,12,14,16,18,20,-1,22,24,-1,-1,26,28,30,32,34,36,38,40,42,44,46,48,50,52,54,-1,56,58,-1,-1,60,-1,62,64,66,68,70,72,74,76,-1,-1,-1,-1,-1,-1,-1,-1,-1,-1,-1,-1,-1,-1,-1,-1,-1,-1,-1,-1,-1,-1,-1,-1,-1,-1,-1,-1,-1,-1,-1,-1],"split_conditions":[2.7E1,2.2072748E1,1.61E1,2.719669E2,2.3E1,2.4087738E1,8.451917E0,2.5995212E2,2.7490747E2,1.8541463E2,2.2779794E0,1.7309975E1,2.7421265E2,-2.3846955E0,-4.4397888E-1,5.2E1,-1.9501668E0,1.4E1,2.9E1,2.2985252E1,1.7E1,1.7114204E1,1.7713316E1,1.639867E2,8.000001E-1,3.5E1,3.3290002E0,1.5333333E1,2E1,1.3E1,-2.2535133E0,1.2324414E1,3.5E1,2.8678322E-1,-2.7926973E-1,1.5E1,-7.408619E-2,6.9E1,1.6247073E2,2E-1,4.578638E1,3.7999997E0,2.634414E2,3.1094653E2,3.1E1,-2.5990859E-2,-6.185898E-1,3.4873564E0,-1.1304355E0,3.5291052E0,2.6535445E-1,-7.5607356E-3,8.132639E-1,-5.168611E-1,2.0645243E-1,6.0366213E-1,-2.1494332E-1,-1.2431244E0,1.2691116E-1,1.0363684E-1,1.2089599E0,7.507274E-2,1.282195E0,-4.1589424E-1,-1.5631874E0,3.0497305E0,4.127567E-1,-5.67331E-1,3.0707902E-1,1.886986E0,-1.869568E-1,-4.8607522E-1,-1.3275747E0,1.6243541E0,-2.3070827E-1,-1.1341628E0,-2.4437042E-1],"split_indices":[2,4,5,7,2,6,4,7,7,7,0,6,7,0,0,1,4,0,1,4,2,6,6,7,5,1,4,3,1,1,0,6,1,0,0,0,0,0,7,5,7,5,7,7,2,0,0,0,0,0,0,0,0,0,0,0,0,0,0,0,0,0,0,0,0,0,0,0,0,0,0,0,0,0,0,0,0],"split_type":[0,0,0,0,0,0,0,0,0,0,0,0,0,0,0,0,0,0,0,0,0,0,0,0,0,0,0,0,0,0,0,0,0,0,0,0,0,0,0,0,0,0,0,0,0,0,0,0,0,0,0,0,0,0,0,0,0,0,0,0,0,0,0,0,0,0,0,0,0,0,0,0,0,0,0,0,0],"sum_hessian":[1.682E3,1.075E3,6.07E2,1.059E3,1.6E1,6.02E2,5E0,7.73E2,2.86E2,1.2E1,4E0,5.35E2,6.7E1,3E0,2E0,7.16E2,5.7E1,9E0,2.77E2,6E0,6E0,3.08E2,2.27E2,4.5E1,2.2E1,7.12E2,4E0,5E0,5.2E1,4E0,5E0,2.53E2,2.4E1,2E0,4E0,5E0,1E0,3E2,8E0,2.3E1,2.04E2,4E0,4.1E1,1.7E1,5E0,6.73E2,3.9E1,2E0,2E0,2E0,3E0,3.4E1,1.8E1,3E0,1E0,1.7E1,2.36E2,1.7E1,7E0,1E0,4E0,2.92E2,8E0,2E0,6E0,1E1,1.3E1,1.5E1,1.89E2,2E0,2E0,3.3E1,8E0,7E0,1E1,2E0,3E0],"tree_param":{"num_deleted":"0","num_feature":"8","num_nodes":"77","size_leaf_vector":"1"}},{"base_weights":[2.2762848E-2,-9.48262E-2,6.439693E-1,-1.041498E0,-3.207079E-2,1.3207108E0,-4.262826E-2,-2.2820443E-1,-2.057477E0,2.1891782E-1,-2.9459414E-1,-3.906875E0,1.5941402E0,-1.7691114E0,9.734516E-1,1.531988E0,-8.880555E-1,-2.9524176E0,2.0217443E-1,-2.0323339E-1,6.246227E-1,-3.1866777E-1,1.5010523E0,-2.0523179E0,2.285724E0,2.0172195E0,-1.3118662E0,-5.340677E0,-7.4270326E-1,3.4112222E0,5.259931E-1,-1.9909551E0,2.6737866E0,-3.6966157E0,-4.3560535E-1,-3.960109E0,-1.0350667E0,1.0774322E0,-1.3266299E0,-5.731185E-3,-1.6547313E0,2.7593331E0,3.686455E-1,3.991701E-1,-4.7429729E-1,2.3696424E-2,1.0048795E0,8.241056E-1,3.4515128E0,2.0542696E0,-3.334692E0,-8.303425E0,1.9199886E0,9.5137274E-1,-2.3207421E0,4.7067285E0,-7.4281234E-1,9.751141E-1,-2.4009805E0,3.1172633E-1,-1.0041996E0,9.939511E-1,-4.0687848E-2,-1.3767825E0,-1.8896772E-2,9.71376E-2,-8.547588E-1,2.8346395E-1,-1.3896863E0,9.874993E-2,-1.05143E0,9.906035E-2,-5.541545E-1,7.5440094E-2,-3.4747615E-1,-2.015802E-1,-1.489579E0,2.9791908E0,5.503481E-1,3.1387562E-1,-1.3994275E-1,1.2684816E0,1.12738665E-2,-6.238297E-1,-1.1028694E-1,1.0832787E0,-1.9658412E-1,1.6987662E0,4.2991996E-1,-1.0783333E-1,1.617711E0,2.0406961E0,-1.5085877E0,-1.4044875E0,-3.2264454E0,8.811501E-1,-1.6973191E-1,1.4170207E0,-1.8625917E-1,1.4808582E-1,-1.3417945E0,8.0961144E-1,2.2638283E0,-7.106787E-1,4.0856797E-1,-3.3816198E-1,-1.2089521E0],"categories":[],"categories_nodes":[],"categories_segments":[],"categories_sizes":[],"default_left":[0,0,0,0,0,0,0,0,0,0,0,0,0,0,0,0,0,0,0,0,0,0,0,0,0,0,0,0,0,0,0,0,0,0,0,0,0,0,0,0,0,0,0,0,0,0,0,0,0,0,0,0,0,0,0,0,0,0,0,0,0,0,0,0,0,0,0,0,0,0,0,0,0,0,0,0,0,0,0,0,0,0,0,0,0,0,0,0,0,0,0,0,0,0,0,0,0,0,0,0,0,0,0,0,0,0,0],"id":12,"left_children":[1,3,5,7,9,11,13,15,17,19,21,23,25,27,29,31,33,35,37,39,41,43,-1,-1,45,47,49,51,53,55,57,59,61,63,65,67,69,-1,71,73,75,77,79,81,83,-1,-1,85,87,89,91,93,95,97,99,101,-1,103,105,-1,-1,-1,-1,-1,-1,-1,-1,-1,-1,-1,-1,-1,-1,-1,-1,-1,-1,-1,-1,-1,-1,-1,-1,-1,-1,-1,-1,-1,-1,-1,-1,-1,-1,-1,-1,-1,-1,-1,-1,-1,-1,-1,-1,-1,-1,-1,-1],"loss_changes":[1.2299929E2,8.408943E1,1.2458225E2,7.224392E1,8.76328E1,1.991938E2,2.3679094E2,5.9433743E1,7.946481E1,1.1658974E2,8.44984E1,1.4282834E2,1.6124811E2,1.7932767E2,9.092384E1,6.1638268E1,4.5406876E1,4.999977E1,6.69428E1,9.573965E1,1.8859647E2,7.258179E1,0E0,0E0,6.778488E0,1.905297E2,1.2260516E2,2.5256921E2,1.091406E2,1.10804886E2,9.83045E1,1.9917694E1,2.0208565E1,1.5928871E1,6.1407402E1,6.372348E1,3.8215363E1,0E0,8.372141E0,8.773714E1,1.2680692E2,2.2717758E2,1.7647787E2,1.6045087E2,9.0499214E1,0E0,0E0,2.6210175E2,2.1949146E2,5.833879E1,2.2309198E2,2.0677612E1,1.1775619E1,1.2154303E2,1.2938885E2,4.2351974E1,0E0,8.600421E1,1.6205532E1,0E0,0E0,0E0,0E0,0E0,0E0,0E0,0E0,0E0,0E0,0E0,0E0,0E0,0E0,0E0,0E0,0E0,0E0,0E0,0E0,0E0,0E0,0E0,0E0,0E0,0E0,0E0,0E0,0E0,0E0,0E0,0E0,0E0,0E0,0E0,0E0,0E0,0E0,0E0,0E0,0E0,0E0,0E0,0E0,0E0,0E0,0E0,0E0],"parents":[2147483647,0,0,1,1,2,2,3,3,4,4,5,5,6,6,7,7,8,8,9,9,10,10,11,11,12,12,13,13,14,14,15,15,16,16,17,17,18,18,19,19,20,20,21,21,24,24,25,25,26,26,27,27,28,28,29,29,30,30,31,31,32,32,33,33,34,34,35,35,36,36,38,38,39,39,40,40,41,41,42,42,43,43,44,44,47,47,48,48,49,49,50,50,51,51,52,52,53,53,54,54,55,55,57,57,58,58],"right_children":[2,4,6,8,10,12,14,16,18,20,22,24,26,28,30,32,34,36,38,40,42,44,-1,-1,46,48,50,52,54,56,58,60,62,64,66,68,70,-1,72,74,76,78,80,82,84,-1,-1,86,88,90,92,94,96,98,100,102,-1,104,106,-1,-1,-1,-1,-1,-1,-1,-1,-1,-1,-1,-1,-1,-1,-1,-1,-1,-1,-1,-1,-1,-1,-1,-1,-1,-1,-1,-1,-1,-1,-1,-1,-1,-1,-1,-1,-1,-1,-1,-1,-1,-1,-1,-1,-1,-1,-1,-1],"split_conditions":[3.9E1,4.3548153E1,4.3E1,5.78525E0,2.3920512E2,-2.8314164E0,4.9E1,1.6666666E1,7E-1,2.0333334E1,2.1E1,4.5E1,1.7539415E1,4.4E1,4.6E1,1.2333333E1,-5.943917E0,2.1E1,1.3E1,2E1,2.1333334E1,-6.4808327E-1,1.5010523E0,-2.0523179E0,4.8E1,3E1,1.4357127E2,4.8E1,1.4578888E1,6E-1,1.46102495E1,8E0,2E1,2.5E1,3.6293674E1,9E0,2.8333334E1,1.0774322E0,1.3004921E1,2E1,1.4045666E1,-3.0225E-1,8E-1,1.1E1,4.852501E-1,2.3696424E-2,1.0048795E0,2.7E1,3.8E1,8.719882E1,4.1E1,3.4E1,4.7E1,4.5666668E1,1.9100078E2,8.3185835E0,-7.4281234E-1,3.1E1,1.8384108E2,3.1172633E-1,-1.0041996E0,9.939511E-1,-4.0687848E-2,-1.3767825E0,-1.8896772E-2,9.71376E-2,-8.547588E-1,2.8346395E-1,-1.3896863E0,9.874993E-2,-1.05143E0,9.906035E-2,-5.541545E-1,7.5440094E-2,-3.4747615E-1,-2.015802E-1,-1.489579E0,2.9791908E0,5.503481E-1,3.1387562E-1,-1.3994275E-1,1.2684816E0,1.12738665E-2,-6.238297E-1,-1.1028694E-1,1.0832787E0,-1.9658412E-1,1.6987662E0,4.2991996E-1,-1.0783333E-1,1.617711E0,2.0406961E0,-1.5085877E0,-1.4044875E0,-3.2264454E0,8.811501E-1,-1.6973191E-1,1.4170207E0,-1.8625917E-1,1.4808582E-1,-1.3417945E0,8.0961144E-1,2.2638283E0,-7.106787E-1,4.0856797E-1,-3.3816198E-1,-1.2089521E0],"split_indices":[0,7,1,4,7,4,0,3,5,3,5,0,4,3,1,3,4,1,2,1,3,4,0,0,0,2,7,1,6,5,4,0,0,1,7,0,3,0,6,2,4,4,5,2,4,0,0,1,2,7,0,2,0,3,7,4,0,2,7,0,0,0,0,0,0,0,0,0,0,0,0,0,0,0,0,0,0,0,0,0,0,0,0,0,0,0,0,0,0,0,0,0,0,0,0,0,0,0,0,0,0,0,0,0,0,0,0],"split_type":[0,0,0,0,0,0,0,0,0,0,0,0,0,0,0,0,0,0,0,0,0,0,0,0,0,0,0,0,0,0,0,0,0,0,0,0,0,0,0,0,0,0,0,0,0,0,0,0,0,0,0,0,0,0,0,0,0,0,0,0,0,0,0,0,0,0,0,0,0,0,0,0,0,0,0,0,0,0,0,0,0,0,0,0,0,0,0,0,0,0,0,0,0,0,0,0,0,0,0,0,0,0,0,0,0,0,0],"sum_hessian":[1.682E3,1.415E3,2.67E2,8.7E1,1.328E3,1.34E2,1.33E2,4.9E1,3.8E1,6.79E2,6.49E2,6E0,1.28E2,4.9E1,8.4E1,1.3E1,3.6E1,2.7E1,1.1E1,3.33E2,3.46E2,6.47E2,2E0,4E0,2E0,1.12E2,1.6E1,1E1,3.9E1,1.2E1,7.2E1,3E0,1E1,4E0,3.2E1,1.7E1,1E1,3E0,8E0,2.94E2,3.9E1,3.6E1,3.1E2,1.15E2,5.32E2,1E0,1E0,6.2E1,5E1,6E0,1E1,7E0,3E0,1.9E1,2E1,1E1,2E0,6.3E1,9E0,1E0,2E0,8E0,2E0,3E0,1E0,2.5E1,7E0,2E0,1.5E1,7E0,3E0,2E0,6E0,2.41E2,5.3E1,3.1E1,8E0,3E0,3.3E1,1.71E2,1.39E2,9E0,1.06E2,3.2E1,5E2,2.1E1,4.1E1,2.3E1,2.7E1,4E0,2E0,1E0,9E0,4E0,3E0,2E0,1E0,5E0,1.4E1,9E0,1.1E1,7E0,3E0,6E0,5.7E1,6E0,3E0],"tree_param":{"num_deleted":"0","num_feature":"8","num_nodes":"107","size_leaf_vector":"1"}},{"base_weights":[1.6581776E-2,-6.291901E-2,6.235566E-1,-5.2772057E-3,-9.5887023E-1,1.8947207E0,1.3576493E-1,-4.9978577E-2,2.3589406E0,-2.2383487E0,3.703492E-1,3.040318E0,-2.3682292E0,-3.0948982E-1,2.1341896E0,1.056731E-2,-9.145567E-1,6.1002975E0,-1.2836722E0,-5.5212045E-1,-4.052774E0,-1.4938681E0,1.9214778E0,4.3676353E0,5.2749294E-1,-4.138297E0,2.206481E0,-1.1089722E0,4.4264102E-1,7.7095237E0,7.700596E-1,-4.754828E-3,1.9694761E0,1.5748849E0,-1.4334434E0,9.205156E0,9.437688E-1,-2.4489083E0,1.1415488E0,-3.9829066E0,2.4279904E0,-5.8026237E0,1.5805973E0,3.0968728E0,-2.43104E0,4.071954E0,4.5733798E-1,1.1432601E0,7.085876E0,-8.242041E-1,2.2658153E0,-2.672195E0,-2.3800673E0,9.53122E-1,-1.0579434E-1,1.3754028E-1,-3.609236E0,-6.772935E-1,1.5482968E0,2.7165983E0,3.489464E-1,-2.854384E0,1.7340684E0,5.9338316E-2,-8.3667725E-2,-5.12247E-1,1.1145177E0,-1.1510214E0,-1.2833354E-1,7.52091E-1,4.5829806E0,-3.479084E-1,4.7892016E-1,-2.0482118E-1,-1.7431699E0,-7.1471447E-1,-1.5559105E0,-3.6617312E-1,1.5950965E0,-2.169767E0,-8.179927E-1,-5.0372746E-2,1.0155221E0,3.7069303E-1,1.3020842E0,-1.0031536E0,4.7992173E-1,-6.741846E-1,1.5071367E0,-2.758575E-1,1.1011025E0,-8.14139E-1,8.872388E-1,4.103654E0,1.289319E0,1.9383274E0,3.600536E-1,-6.3800246E-2,-8.9795256E-1,6.6997665E-1,-1.6968483E-1,1.1368561E0,-1.269242E0,-3.7652647E-1,3.422257E-1,5.919808E-1,-5.440755E-1,3.7849046E-2,-1.0893185E0,9.338986E-1,-1.13614514E-1],"categories":[],"categories_nodes":[],"categories_segments":[],"categories_sizes":[],"default_left":[0,0,0,0,0,0,0,0,0,0,0,0,0,0,0,0,0,0,0,0,0,0,0,0,0,0,0,0,0,0,0,0,0,0,0,0,0,0,0,0,0,0,0,0,0,0,0,0,0,0,0,0,0,0,0,0,0,0,0,0,0,0,0,0,0,0,0,0,0,0,0,0,0,0,0,0,0,0,0,0,0,0,0,0,0,0,0,0,0,0,0,0,0,0,0,0,0,0,0,0,0,0,0,0,0,0,0,0,0,0,0],"id":13,"left_children":[1,3,5,7,9,11,13,15,17,19,21,23,25,27,29,31,33,35,37,39,41,43,45,47,49,51,53,55,57,59,61,63,-1,65,67,69,71,73,-1,75,77,79,81,83,85,87,89,91,93,-1,95,97,-1,-1,-1,99,101,103,105,-1,-1,107,109,-1,-1,-1,-1,-1,-1,-1,-1,-1,-1,-1,-1,-1,-1,-1,-1,-1,-1,-1,-1,-1,-1,-1,-1,-1,-1,-1,-1,-1,-1,-1,-1,-1,-1,-1,-1,-1,-1,-1,-1,-1,-1,-1,-1,-1,-1,-1,-1],"loss_changes":[8.125236E1,7.689323E1,1.206551E2,1.4807518E2,1.5389264E2,2.7091583E2,1.2701325E2,7.198631E1,3.6216693E2,1.3850096E2,1.3299428E2,1.4111469E2,1.0630164E2,7.084477E1,1.918057E2,1.2917993E2,1.1851397E2,1.9944629E2,9.2334206E1,2.6527356E2,2.2603787E2,9.787721E1,7.685268E1,2.3730853E2,9.7308624E1,2.8878143E1,1.1055868E1,1.7814316E2,7.6582634E1,3.3517914E1,8.181759E1,7.1351E1,0E0,1.1874109E2,1.7962686E2,2.8704333E2,1.0088057E1,6.728006E1,0E0,1.0758148E1,1.5405963E2,5.5052917E1,1.949921E1,3.8940315E0,7.1576965E1,7.143858E1,7.415682E1,1.0599069E2,2.1694446E2,0E0,4.1422573E1,5.679123E0,0E0,0E0,0E0,5.873416E1,1.03410934E2,3.399592E1,4.7868614E1,0E0,0E0,1.203273E1,5.361968E1,0E0,0E0,0E0,0E0,0E0,0E0,0E0,0E0,0E0,0E0,0E0,0E0,0E0,0E0,0E0,0E0,0E0,0E0,0E0,0E0,0E0,0E0,0E0,0E0,0E0,0E0,0E0,0E0,0E0,0E0,0E0,0E0,0E0,0E0,0E0,0E0,0E0,0E0,0E0,0E0,0E0,0E0,0E0,0E0,0E0,0E0,0E0,0E0],"parents":[2147483647,0,0,1,1,2,2,3,3,4,4,5,5,6,6,7,7,8,8,9,9,10,10,11,11,12,12,13,13,14,14,15,15,16,16,17,17,18,18,19,19,20,20,21,21,22,22,23,23,24,24,25,25,26,26,27,27,28,28,29,29,30,30,31,31,33,33,34,34,35,35,36,36,37,37,39,39,40,40,41,41,42,42,43,43,44,44,45,45,46,46,47,47,48,48,50,50,51,51,55,55,56,56,57,57,58,58,61,61,62,62],"right_children":[2,4,6,8,10,12,14,16,18,20,22,24,26,28,30,32,34,36,38,40,42,44,46,48,50,52,54,56,58,60,62,64,-1,66,68,70,72,74,-1,76,78,80,82,84,86,88,90,92,94,-1,96,98,-1,-1,-1,100,102,104,106,-1,-1,108,110,-1,-1,-1,-1,-1,-1,-1,-1,-1,-1,-1,-1,-1,-1,-1,-1,-1,-1,-1,-1,-1,-1,-1,-1,-1,-1,-1,-1,-1,-1,-1,-1,-1,-1,-1,-1,-1,-1,-1,-1,-1,-1,-1,-1,-1,-1,-1,-1],"split_conditions":[4.4E1,3.8E1,4.8E1,3.7E1,2E-1,1.7097748E1,1.3566499E1,3.9E1,4E-1,3.7E1,3E1,2.5015413E2,2.042275E1,4.8E1,8.952481E1,4.3333332E1,1.2979984E1,4.8E1,2.826746E2,1.9E1,4.2E1,4E-1,2.8665001E0,1.5577228E2,3.2E1,4.6E1,4.6E1,4.4333332E1,3E-1,5.1E1,1.3397612E1,1.0758166E1,1.9694761E0,2.8E1,1.5986593E1,2.5E1,4.3E1,5.4999995E0,1.1415488E0,2.5831775E2,4.183166E0,4.6E1,1.491483E2,1.2E1,1.6062334E1,2.2E1,8.526917E0,1.2979984E1,1.50038395E1,-8.242041E-1,3.1333334E1,1.5E1,-2.3800673E0,9.53122E-1,-1.0579434E-1,1.4561099E1,-3.1689165E0,7.4E1,7E0,2.7165983E0,3.489464E-1,2.5E1,4.9E1,5.9338316E-2,-8.3667725E-2,-5.12247E-1,1.1145177E0,-1.1510214E0,-1.2833354E-1,7.52091E-1,4.5829806E0,-3.479084E-1,4.7892016E-1,-2.0482118E-1,-1.7431699E0,-7.1471447E-1,-1.5559105E0,-3.6617312E-1,1.5950965E0,-2.169767E0,-8.179927E-1,-5.0372746E-2,1.0155221E0,3.7069303E-1,1.3020842E0,-1.0031536E0,4.7992173E-1,-6.741846E-1,1.5071367E0,-2.758575E-1,1.1011025E0,-8.14139E-1,8.872388E-1,4.103654E0,1.289319E0,1.9383274E0,3.600536E-1,-6.3800246E-2,-8.9795256E-1,6.6997665E-1,-1.6968483E-1,1.1368561E0,-1.269242E0,-3.7652647E-1,3.422257E-1,5.919808E-1,-5.440755E-1,3.7849046E-2,-1.0893185E0,9.338986E-1,-1.13614514E-1],"split_indices":[2,2,2,2,5,4,4,1,5,1,0,7,4,3,7,3,6,0,7,0,2,5,4,7,1,2,1,3,5,0,6,4,0,2,6,0,1,5,0,7,4,1,7,0,4,1,4,6,6,0,3,0,0,0,0,6,4,1,5,0,0,1,1,0,0,0,0,0,0,0,0,0,0,0,0,0,0,0,0,0,0,0,0,0,0,0,0,0,0,0,0,0,0,0,0,0,0,0,0,0,0,0,0,0,0,0,0,0,0,0,0],"split_type":[0,0,0,0,0,0,0,0,0,0,0,0,0,0,0,0,0,0,0,0,0,0,0,0,0,0,0,0,0,0,0,0,0,0,0,0,0,0,0,0,0,0,0,0,0,0,0,0,0,0,0,0,0,0,0,0,0,0,0,0,0,0,0,0,0,0,0,0,0,0,0,0,0,0,0,0,0,0,0,0,0,0,0,0,0,0,0,0,0,0,0,0,0,0,0,0,0,0,0,0,0,0,0,0,0,0,0,0,0,0,0],"sum_hessian":[1.682E3,1.488E3,1.94E2,1.399E3,8.9E1,5.3E1,1.41E2,1.374E3,2.5E1,4.5E1,4.4E1,4.2E1,1.1E1,1.16E2,2.5E1,1.285E3,8.9E1,1.2E1,1.3E1,2.4E1,2.1E1,2E1,2.4E1,2.7E1,1.5E1,8E0,3E0,5.6E1,6E1,4E0,2.1E1,1.283E3,2E0,1.5E1,7.4E1,7E0,5E0,1.1E1,2E0,1.1E1,1.3E1,1.6E1,5E0,3E0,1.7E1,9E0,1.5E1,1.3E1,1.4E1,5E0,1E1,7E0,1E0,2E0,1E0,3.8E1,1.8E1,3E1,3E1,3E0,1E0,4E0,1.7E1,7.38E2,5.45E2,6E0,9E0,2.1E1,5.3E1,4E0,3E0,1E0,4E0,8E0,3E0,6E0,5E0,6E0,7E0,1E1,6E0,3E0,2E0,2E0,1E0,1.4E1,3E0,1E0,8E0,1.1E1,4E0,4E0,9E0,3E0,1.1E1,1E0,9E0,1E0,6E0,9E0,2.9E1,1E0,1.7E1,2.3E1,7E0,2.7E1,3E0,1E0,3E0,1E1,7E0],"tree_param":{"num_deleted":"0","num_feature":"8","num_nodes":"111","size_leaf_vector":"1"}},{"base_weights":[1.9529492E-2,-7.810149E-1,7.383432E-2,-3.346266E-1,-1.9155908E0,-1.0041269E0,1.17871106E-1,-2.2898993E0,9.16572E-2,-6.816735E-1,-3.7096605E0,-1.1935005E0,9.354167E-1,1.8894091E-1,-5.119082E-1,-2.8952112E0,2.683945E-1,1.7260218E0,-5.7099354E-1,8.230281E-1,-1.0243695E0,-1.4706309E0,-9.924984E-2,6.4917944E-2,-1.5779088E0,7.7793695E-2,7.2211653E-1,-1.3997129E0,5.1864326E-1,3.1257376E-1,-3.5680256E0,2.0038824E-1,3.0790532E0,-1.5851634E0,3.0911142E-1,-1.8973093E0,1.0377283E0,6.554833E-2,-8.339882E-2,9.2809993E-1,-1.0541614E0,-1.7181602E0,1.0050806E0,1.403478E-1,-2.1423595E0,8.895999E-1,-2.769327E0,-4.2818136E0,-8.999224E-1,2.3346894E0,-5.585717E-1,-2.4962999E-2,1.6562119E-1,-2.3778526E-1,-1.2488403E0,4.3252775E-1,-8.7052315E-2,1.3655279E0,4.0158683E-1,-8.431826E-1,-9.892245E-2,2.933178E-3,1.1688699E0,-6.694792E-1,-1.1745263E-2,9.2254776E-1,4.563103E-3,6.1965E-1,9.2417136E-2,-4.3685377E-1,2.0369168E-1,-5.765505E-1,-3.2374147E-2,-3.1709504E-1,7.6938134E-1,2.3933936E-2,6.67332E-1,4.291181E-1,-8.653327E-1,4.9856994E-1,7.753947E-2,-1.2899897E0,-2.1770325E-2,-2.9130092E-1,-2.2292373E0,-4.0925562E-1,3.3626834E-1,2.4838544E-1,1.7429096E0,-7.055803E-2,-1.1685737E0],"categories":[],"categories_nodes":[],"categories_segments":[],"categories_sizes":[],"default_left":[0,0,0,0,0,0,0,0,0,0,0,0,0,0,0,0,0,0,0,0,0,0,0,0,0,0,0,0,0,0,0,0,0,0,0,0,0,0,0,0,0,0,0,0,0,0,0,0,0,0,0,0,0,0,0,0,0,0,0,0,0,0,0,0,0,0,0,0,0,0,0,0,0,0,0,0,0,0,0,0,0,0,0,0,0,0,0,0,0,0,0],"id":14,"left_children":[1,3,5,7,9,11,13,15,17,19,21,23,-1,25,27,29,-1,31,33,-1,35,-1,37,39,41,43,45,47,49,51,53,55,57,59,61,63,65,-1,-1,67,69,71,73,75,77,79,81,83,85,87,89,-1,-1,-1,-1,-1,-1,-1,-1,-1,-1,-1,-1,-1,-1,-1,-1,-1,-1,-1,-1,-1,-1,-1,-1,-1,-1,-1,-1,-1,-1,-1,-1,-1,-1,-1,-1,-1,-1,-1,-1],"loss_changes":[7.322344E1,5.355036E1,7.4978455E1,6.522297E1,6.3883232E1,5.2120647E1,6.795029E1,2.9577217E1,7.1381386E1,2.5111876E1,5.117595E1,2.912722E1,0E0,8.0716545E1,1.4162495E2,2.701419E1,0E0,3.860337E1,4.244105E1,0E0,3.4370464E1,0E0,2.8792292E-1,1.5467905E1,1.839119E1,1.5709583E2,1.3988187E2,1.15703766E2,1.4215569E2,3.303047E-1,1.3207924E1,6.5080624E0,1.953833E1,3.2919147E1,2.787935E1,7.987705E0,1.2453081E1,0E0,0E0,5.7108393E0,5.8659587E0,1.422316E1,1.2358258E1,1.3854852E2,8.631555E1,1.0924121E2,4.5093353E1,1.1789267E2,6.907881E1,1.3655989E2,4.871823E1,0E0,0E0,0E0,0E0,0E0,0E0,0E0,0E0,0E0,0E0,0E0,0E0,0E0,0E0,0E0,0E0,0E0,0E0,0E0,0E0,0E0,0E0,0E0,0E0,0E0,0E0,0E0,0E0,0E0,0E0,0E0,0E0,0E0,0E0,0E0,0E0,0E0,0E0,0E0,0E0],"parents":[2147483647,0,0,1,1,2,2,3,3,4,4,5,5,6,6,7,7,8,8,9,9,10,10,11,11,13,13,14,14,15,15,17,17,18,18,20,20,22,22,23,23,24,24,25,25,26,26,27,27,28,28,29,29,30,30,31,31,32,32,33,33,34,34,35,35,36,36,39,39,40,40,41,41,42,42,43,43,44,44,45,45,46,46,47,47,48,48,49,49,50,50],"right_children":[2,4,6,8,10,12,14,16,18,20,22,24,-1,26,28,30,-1,32,34,-1,36,-1,38,40,42,44,46,48,50,52,54,56,58,60,62,64,66,-1,-1,68,70,72,74,76,78,80,82,84,86,88,90,-1,-1,-1,-1,-1,-1,-1,-1,-1,-1,-1,-1,-1,-1,-1,-1,-1,-1,-1,-1,-1,-1,-1,-1,-1,-1,-1,-1,-1,-1,-1,-1,-1,-1,-1,-1,-1,-1,-1,-1],"split_conditions":[4.578638E1,1.9245697E1,9E0,-2.1397498E0,2.1E1,3.5577484E2,2.5417631E1,1.6641972E1,1.5964287E1,-3.9647503E0,3.3E1,4.183166E0,9.354167E-1,2.1188072E1,2.8112288E1,7.908339E0,2.683945E-1,7.908339E0,1.9E1,8.230281E-1,1.8E1,-1.4706309E0,3.2E1,1.1666667E1,2.2366402E1,2.0858265E1,1.0499999E1,1.88097E2,2.9795301E1,1.4E1,1.5E1,1.3E1,5.78525E0,1.2522619E1,2.0768583E1,1.46102495E1,1.9E1,6.554833E-2,-8.339882E-2,-1.3459998E0,2.1E1,1.5E1,8E0,1.03E1,-2.2099996E-1,2.2E1,2.9E1,1.9666666E1,3.3E1,2.9478264E1,9.6E0,-2.4962999E-2,1.6562119E-1,-2.3778526E-1,-1.2488403E0,4.3252775E-1,-8.7052315E-2,1.3655279E0,4.0158683E-1,-8.431826E-1,-9.892245E-2,2.933178E-3,1.1688699E0,-6.694792E-1,-1.1745263E-2,9.2254776E-1,4.563103E-3,6.1965E-1,9.2417136E-2,-4.3685377E-1,2.0369168E-1,-5.765505E-1,-3.2374147E-2,-3.1709504E-1,7.6938134E-1,2.3933936E-2,6.67332E-1,4.291181E-1,-8.653327E-1,4.9856994E-1,7.753947E-2,-1.2899897E0,-2.1770325E-2,-2.9130092E-1,-2.2292373E0,-4.0925562E-1,3.3626834E-1,2.4838544E-1,1.7429096E0,-7.055803E-2,-1.1685737E0],"split_indices":[7,6,0,4,0,7,6,6,7,4,2,4,0,6,6,7,0,7,2,0,0,0,0,3,6,6,5,7,6,0,1,2,4,6,4,4,0,0,0,4,1,1,0,5,4,2,1,3,0,6,5,0,0,0,0,0,0,0,0,0,0,0,0,0,0,0,0,0,0,0,0,0,0,0,0,0,0,0,0,0,0,0,0,0,0,0,0,0,0,0,0],"split_type":[0,0,0,0,0,0,0,0,0,0,0,0,0,0,0,0,0,0,0,0,0,0,0,0,0,0,0,0,0,0,0,0,0,0,0,0,0,0,0,0,0,0,0,0,0,0,0,0,0,0,0,0,0,0,0,0,0,0,0,0,0,0,0,0,0,0,0,0,0,0,0,0,0,0,0,0,0,0,0,0,0,0,0,0,0,0,0,0,0,0,0],"sum_hessian":[1.682E3,1.06E2,1.576E3,7.7E1,2.9E1,6.1E1,1.515E3,1.3E1,6.4E1,1.8E1,1.1E1,5.9E1,2E0,1.362E3,1.53E2,1.1E1,2E0,1.8E1,4.6E1,1E0,1.7E1,8E0,3E0,1.4E1,4.5E1,1.128E3,2.34E2,8.2E1,7.1E1,2E0,9E0,9E0,9E0,2.1E1,2.5E1,1.2E1,5E0,1E0,2E0,8E0,6E0,4.3E1,2E0,1.098E3,3E1,2.24E2,1E1,1.1E1,7.1E1,2.6E1,4.5E1,1E0,1E0,2E0,7E0,2E0,7E0,4E0,5E0,1E1,1.1E1,2.4E1,1E0,1E1,2E0,1E0,4E0,2E0,6E0,5E0,1E0,3.8E1,5E0,1E0,1E0,1.068E3,3E1,5E0,2.5E1,1E2,1.24E2,6E0,4E0,6E0,5E0,5.8E1,1.3E1,1.9E1,7E0,4.2E1,3E0],"tree_param":{"num_deleted":"0","num_feature":"8","num_nodes":"91","size_leaf_vector":"1"}},{"base_weights":[1.3540698E-2,3.272459E-2,-1.8684056E0,-1.0299331E0,6.3515574E-2,-4.506356E-1,-1.554278E0,4.71216E-1,-1.5580761E0,-6.9476314E-2,2.9541257E-1,3.0471954E0,-1.3636227E0,-1.289619E0,1.4266498E0,-2.133217E0,1.0472333E0,-2.4304618E-1,4.5420507E-1,4.9340633E-1,-3.1144106E-1,2.1886255E-1,1.1523755E0,-1.801543E0,4.5233706E-1,-4.649973E-1,-2.4103022E0,1.0177794E0,-2.8320823E0,-1.9340687E0,2.6265678E0,-1.5838116E-1,-1.3485084E0,1.9219939E0,-2.20061E-1,2.3254948E0,3.170709E-1,-1.1304445E0,1.8135786E0,-2.2376013E0,-3.8206417E-2,-2.9662406E-1,5.250049E-2,-1.0507046E0,1.2987557E-1,-2.7308795E-1,9.747849E-1,-5.0965184E-1,-1.0980902E0,3.4806862E-1,-1.2183995E0,-9.052077E-2,1.0302234E0,-7.215532E-2,4.233528E-1,-1.2932707E0,-6.9544606E-2,2.7608192E0,4.272774E-1,-1.0385155E-1,1.0295378E0,1.263134E0,-1.9418287E-1,2.0961814E-1,-1.2083494E-1,-7.9517263E-1,1.032471E-2,-6.3069604E-2,9.35168E-1,-2.9059592E-1,-7.497426E-1,8.9457326E-2,-1.0665021E-1],"categories":[],"categories_nodes":[],"categories_segments":[],"categories_sizes":[],"default_left":[0,0,0,0,0,0,0,0,0,0,0,0,0,0,0,0,0,0,0,0,0,0,0,0,0,0,0,0,0,0,0,0,0,0,0,0,0,0,0,0,0,0,0,0,0,0,0,0,0,0,0,0,0,0,0,0,0,0,0,0,0,0,0,0,0,0,0,0,0,0,0,0,0],"id":15,"left_children":[1,3,5,7,9,11,-1,13,15,17,19,21,23,25,-1,27,29,31,33,35,37,-1,-1,39,-1,41,43,45,47,49,51,53,55,57,59,61,63,65,67,69,71,-1,-1,-1,-1,-1,-1,-1,-1,-1,-1,-1,-1,-1,-1,-1,-1,-1,-1,-1,-1,-1,-1,-1,-1,-1,-1,-1,-1,-1,-1,-1,-1],"loss_changes":[6.0822582E1,5.4610123E1,7.750395E1,3.7996796E1,5.0012848E1,4.567039E1,0E0,1.0420369E2,5.4678688E1,9.3823456E1,7.116422E1,2.7186852E0,1.65483E1,8.120613E0,0E0,6.674397E1,3.8039276E1,7.232175E1,2.5477078E2,1.4334837E2,2.561483E2,0E0,0E0,7.6036835E0,0E0,2.5194263E0,1.39359455E1,2.8772804E1,1.6307465E1,2.4459225E1,1.2859356E1,9.32893E1,1.8094534E2,2.8042764E2,8.270325E1,2.2126299E2,1.1237401E2,1.8778969E2,1.0882715E2,2.3425293E-1,4.2621812E-1,0E0,0E0,0E0,0E0,0E0,0E0,0E0,0E0,0E0,0E0,0E0,0E0,0E0,0E0,0E0,0E0,0E0,0E0,0E0,0E0,0E0,0E0,0E0,0E0,0E0,0E0,0E0,0E0,0E0,0E0,0E0,0E0],"parents":[2147483647,0,0,1,1,2,2,3,3,4,4,5,5,7,7,8,8,9,9,10,10,11,11,12,12,13,13,15,15,16,16,17,17,18,18,19,19,20,20,23,23,25,25,26,26,27,27,28,28,29,29,30,30,31,31,32,32,33,33,34,34,35,35,36,36,37,37,38,38,39,39,40,40],"right_children":[2,4,6,8,10,12,-1,14,16,18,20,22,24,26,-1,28,30,32,34,36,38,-1,-1,40,-1,42,44,46,48,50,52,54,56,58,60,62,64,66,68,70,72,-1,-1,-1,-1,-1,-1,-1,-1,-1,-1,-1,-1,-1,-1,-1,-1,-1,-1,-1,-1,-1,-1,-1,-1,-1,-1,-1,-1,-1,-1,-1,-1],"split_conditions":[1.6400002E1,-4.696E0,2.8E1,1.4E1,2.6333334E1,1.4689588E1,-1.554278E0,1.6666666E1,3.230499E2,1.9E0,1.8E0,1.9E1,2.6E1,1.9E1,1.4266498E0,1.2324414E1,1E-1,2.4666666E1,1.6575644E1,2.5E1,1.3185249E1,2.1886255E-1,1.1523755E0,3.35E1,4.5233706E-1,1.4E1,2.3E1,2.4690529E2,2.7922925E2,1.9E1,1.2E1,2.9E1,2.2E1,1.9000002E0,3.575436E1,3.5E1,1.1274834E1,1.8218275E1,3E1,1.6E1,1.2E1,-2.9662406E-1,5.250049E-2,-1.0507046E0,1.2987557E-1,-2.7308795E-1,9.747849E-1,-5.0965184E-1,-1.0980902E0,3.4806862E-1,-1.2183995E0,-9.052077E-2,1.0302234E0,-7.215532E-2,4.233528E-1,-1.2932707E0,-6.9544606E-2,2.7608192E0,4.272774E-1,-1.0385155E-1,1.0295378E0,1.263134E0,-1.9418287E-1,2.0961814E-1,-1.2083494E-1,-7.9517263E-1,1.032471E-2,-6.3069604E-2,9.35168E-1,-2.9059592E-1,-7.497426E-1,8.9457326E-2,-1.0665021E-1],"split_indices":[5,4,2,2,3,6,0,3,7,5,5,0,1,0,0,6,5,3,6,1,4,0,0,5,0,0,0,7,7,0,0,0,1,5,6,2,4,6,0,0,0,0,0,0,0,0,0,0,0,0,0,0,0,0,0,0,0,0,0,0,0,0,0,0,0,0,0,0,0,0,0,0,0],"split_type":[0,0,0,0,0,0,0,0,0,0,0,0,0,0,0,0,0,0,0,0,0,0,0,0,0,0,0,0,0,0,0,0,0,0,0,0,0,0,0,0,0,0,0,0,0,0,0,0,0,0,0,0,0,0,0,0,0,0,0,0,0,0,0,0,0,0,0,0,0,0,0,0,0],"sum_hessian":[1.682E3,1.666E3,1.6E1,4.6E1,1.62E3,1.2E1,4E0,1.2E1,3.4E1,1.03E3,5.9E2,2E0,1E1,9E0,3E0,2.8E1,6E0,7.74E2,2.56E2,4.45E2,1.45E2,1E0,1E0,9E0,1E0,6E0,3E0,5E0,2.3E1,2E0,4E0,7.2E2,5.4E1,8E1,1.76E2,3.8E1,4.07E2,1.05E2,4E1,7E0,2E0,3E0,3E0,2E0,1E0,3E0,2E0,1.1E1,1.2E1,1E0,1E0,1E0,3E0,6.85E2,3.5E1,1.4E1,4E1,4E0,7.6E1,1.71E2,5E0,2.3E1,1.5E1,2.66E2,1.41E2,4.5E1,6E1,1.6E1,2.4E1,2E0,5E0,1E0,1E0],"tree_param":{"num_deleted":"0","num_feature":"8","num_nodes":"73","size_leaf_vector":"1"}},{"base_weights":[1.1251348E-2,6.699109E-2,-4.951465E-1,-4.6546522E-1,1.4960456E-1,-7.612492E-1,1.4987707E0,1.8241091E-1,-6.769991E-1,2.1129854E0,9.737618E-2,8.122102E-2,-1.3206533E0,-1.0877827E0,3.713931E0,-5.8251405E-1,2.057065E0,-2.317315E-1,-1.4520793E0,4.7586875E0,2.4856558E-1,-2.0953872E0,1.4090976E-1,-3.5404232E-1,1.6820995E0,-2.3417885E0,-3.152055E-1,-2.3759813E0,8.130024E-1,1.0214512E0,4.5959296E0,-1.1631999E-1,-2.5638714E0,1.1757811E0,7.340355E-1,-9.8107266E-1,5.529242E-1,-4.1348022E-1,-2.6345596E0,2.4404383E0,3.7336369E0,-3.658988E0,1.1031016E0,-7.0774275E-1,-3.7971401E0,1.552185E0,1.0866861E-1,8.48913E-1,-4.8198834E-1,-1.2225454E0,2.6757474E0,-1.5480192E0,-1.3747101E0,7.5826967E-1,-1.5207362E0,-1.0082812E0,-1.2958164E0,1.8808587E-1,5.282321E-1,3.6688787E-1,1.4709222E0,-2.3212697E-1,1.6451596E-1,-1.1026767E0,4.3084625E-2,-9.5258194E-1,4.5636335E-1,-4.0522859E-1,-2.6386403E-2,4.212879E-1,-2.2553253E-1,4.6525154E-1,-2.5526446E-1,-9.0639544E-1,4.013077E-1,1.0487882E0,-1.3755461E0,-3.2425135E-1,-1.7090158E0,9.0875804E-1,-1.1939231E-1,4.2777714E-1,-6.86587E-1,-4.0132716E-2,-1.3789072E0,7.0548785E-1,-2.2211124E-1,-5.7879275E-1,5.0991848E-2,-2.5970933E-1,9.4666414E-2,-1.2116833E-1,-5.5177474E-1,9.861208E-1,2.8109923E-1,5.9787315E-1,-5.147134E-1,-1.4603809E-1,6.442963E-1,-7.188774E-1,9.3287736E-2,2.3611093E-2,-6.3645023E-1,7.789293E-2,6.7457203E-3],"categories":[],"categories_nodes":[],"categories_segments":[],"categories_sizes":[],"default_left":[0,0,0,0,0,0,0,0,0,0,0,0,0,0,0,0,0,0,0,0,0,0,0,0,0,0,0,0,0,0,0,0,0,0,0,0,0,0,0,0,0,0,0,0,0,0,0,0,0,0,0,0,0,0,0,0,0,0,0,0,0,0,0,0,0,0,0,0,0,0,0,0,0,0,0,0,0,0,0,0,0,0,0,0,0,0,0,0,0,0,0,0,0,0,0,0,0,0,0,0,0,0,0,0,0],"id":16,"left_children":[1,3,5,7,9,11,13,15,17,19,21,23,25,27,29,31,33,35,37,39,41,43,45,47,49,51,53,55,-1,57,59,61,63,-1,65,67,69,71,73,75,-1,77,79,81,83,85,87,-1,89,91,93,95,-1,97,99,101,-1,103,-1,-1,-1,-1,-1,-1,-1,-1,-1,-1,-1,-1,-1,-1,-1,-1,-1,-1,-1,-1,-1,-1,-1,-1,-1,-1,-1,-1,-1,-1,-1,-1,-1,-1,-1,-1,-1,-1,-1,-1,-1,-1,-1,-1,-1,-1,-1],"loss_changes":[4.753835E1,6.679952E1,8.974892E1,2.808123E1,1.3453732E2,6.98569E1,1.1863258E2,7.433073E1,5.281169E1,1.6652893E2,1.2257804E2,4.2403755E1,9.0637985E1,5.536202E1,2.1427872E1,3.3878563E1,3.4079403E1,5.8751965E1,6.7685555E1,2.1910547E2,7.415829E1,5.6348312E1,5.7026253E1,2.0916609E1,4.079175E1,7.116054E1,6.0682064E1,1.6908821E1,0E0,2.133326E0,2.291626E0,1.3971391E1,2.1597599E1,0E0,3.560339E1,1.672018E1,5.5483936E1,2.7954632E1,4.3985413E1,1.05017555E2,0E0,1.4857079E1,5.3247322E1,5.3859474E1,3.1591156E1,5.305844E1,1.5399997E2,0E0,1.4656339E1,1.276598E0,7.549385E0,2.3607979E1,0E0,4.4292255E1,3.6026295E1,7.4272866E0,0E0,2.9711388E-2,0E0,0E0,0E0,0E0,0E0,0E0,0E0,0E0,0E0,0E0,0E0,0E0,0E0,0E0,0E0,0E0,0E0,0E0,0E0,0E0,0E0,0E0,0E0,0E0,0E0,0E0,0E0,0E0,0E0,0E0,0E0,0E0,0E0,0E0,0E0,0E0,0E0,0E0,0E0,0E0,0E0,0E0,0E0,0E0,0E0,0E0,0E0],"parents":[2147483647,0,0,1,1,2,2,3,3,4,4,5,5,6,6,7,7,8,8,9,9,10,10,11,11,12,12,13,13,14,14,15,15,16,16,17,17,18,18,19,19,20,20,21,21,22,22,23,23,24,24,25,25,26,26,27,27,29,29,30,30,31,31,32,32,34,34,35,35,36,36,37,37,38,38,39,39,41,41,42,42,43,43,44,44,45,45,46,46,48,48,49,49,50,50,51,51,53,53,54,54,55,55,57,57],"right_children":[2,4,6,8,10,12,14,16,18,20,22,24,26,28,30,32,34,36,38,40,42,44,46,48,50,52,54,56,-1,58,60,62,64,-1,66,68,70,72,74,76,-1,78,80,82,84,86,88,-1,90,92,94,96,-1,98,100,102,-1,104,-1,-1,-1,-1,-1,-1,-1,-1,-1,-1,-1,-1,-1,-1,-1,-1,-1,-1,-1,-1,-1,-1,-1,-1,-1,-1,-1,-1,-1,-1,-1,-1,-1,-1,-1,-1,-1,-1,-1,-1,-1,-1,-1,-1,-1,-1,-1],"split_conditions":[3.2056598E2,1.3333333E1,1.5283166E1,1.4684122E2,1.1E1,1.5E1,1.4759999E1,1.2333333E1,1.9694992E1,2.82275E0,1.2E1,1.8E1,2.7E1,1.9843584E1,1.2E1,1.2E1,1.2666667E1,1.2E1,1.2E1,9E-1,3.856083E0,1.9E1,9.107359E0,6E0,1.2E1,2.4E1,3E1,2.5E1,8.130024E-1,9E0,1.6199999E1,1.1E1,1.803237E1,1.1757811E0,1.0805998E1,1.7654688E1,1.5851916E1,2.3510258E2,3.014784E2,2.5E1,3.7336369E0,1.8E1,1.914904E2,2.2E1,-6.4808327E-1,3.5E1,1.0464797E1,8.48913E-1,1.7782688E1,2.5E1,1.3E1,-5.943917E0,-1.3747101E0,2.2E1,4E-1,1.8E1,-1.2958164E0,1E1,5.282321E-1,3.6688787E-1,1.4709222E0,-2.3212697E-1,1.6451596E-1,-1.1026767E0,4.3084625E-2,-9.5258194E-1,4.5636335E-1,-4.0522859E-1,-2.6386403E-2,4.212879E-1,-2.2553253E-1,4.6525154E-1,-2.5526446E-1,-9.0639544E-1,4.013077E-1,1.0487882E0,-1.3755461E0,-3.2425135E-1,-1.7090158E0,9.0875804E-1,-1.1939231E-1,4.2777714E-1,-6.86587E-1,-4.0132716E-2,-1.3789072E0,7.0548785E-1,-2.2211124E-1,-5.7879275E-1,5.0991848E-2,-2.5970933E-1,9.4666414E-2,-1.2116833E-1,-5.5177474E-1,9.861208E-1,2.8109923E-1,5.9787315E-1,-5.147134E-1,-1.4603809E-1,6.442963E-1,-7.188774E-1,9.3287736E-2,2.3611093E-2,-6.3645023E-1,7.789293E-2,6.7457203E-3],"split_indices":[7,3,4,7,1,1,6,3,6,4,1,2,2,4,0,3,3,0,0,5,4,0,6,1,1,2,0,0,0,1,6,2,6,0,6,6,4,7,7,0,0,0,7,2,4,1,6,0,6,2,0,4,0,0,5,2,0,0,0,0,0,0,0,0,0,0,0,0,0,0,0,0,0,0,0,0,0,0,0,0,0,0,0,0,0,0,0,0,0,0,0,0,0,0,0,0,0,0,0,0,0,0,0,0,0],"split_type":[0,0,0,0,0,0,0,0,0,0,0,0,0,0,0,0,0,0,0,0,0,0,0,0,0,0,0,0,0,0,0,0,0,0,0,0,0,0,0,0,0,0,0,0,0,0,0,0,0,0,0,0,0,0,0,0,0,0,0,0,0,0,0,0,0,0,0,0,0,0,0,0,0,0,0,0,0,0,0,0,0,0,0,0,0,0,0,0,0,0,0,0,0,0,0,0,0,0,0,0,0,0,0,0,0],"sum_hessian":[1.682E3,1.516E3,1.66E2,2.03E2,1.313E3,1.47E2,1.9E1,5E1,1.53E2,3.3E1,1.28E3,5.9E1,8.8E1,9E0,1E1,3.6E1,1.4E1,9.8E1,5.5E1,1.3E1,2E1,2.4E1,1.256E3,4.7E1,1.2E1,4.3E1,4.5E1,7E0,2E0,3E0,7E0,3E1,6E0,5E0,9E0,5E1,4.8E1,3E1,2.5E1,1.1E1,2E0,3E0,1.7E1,1.4E1,1E1,2.7E1,1.229E3,1E0,4.6E1,3E0,9E0,3.3E1,1E1,2.4E1,2.1E1,5E0,2E0,2E0,1E0,1E0,6E0,1.5E1,1.5E1,4E0,2E0,1E0,8E0,3.5E1,1.5E1,2.9E1,1.9E1,5E0,2.5E1,2.3E1,2E0,1E1,1E0,2E0,1E0,7E0,1E1,6E0,8E0,2E0,8E0,2E1,7E0,3.5E1,1.194E3,3.1E1,1.5E1,2E0,1E0,6E0,3E0,1E0,3.2E1,1.3E1,1.1E1,1.4E1,7E0,3E0,2E0,1E0,1E0],"tree_param":{"num_deleted":"0","num_feature":"8","num_nodes":"105","size_leaf_vector":"1"}},{"base_weights":[8.278243E-3,-4.7284603E-2,4.046939E-1,1.9207668E-2,-7.084093E-1,1.2011155E0,-1.10041E-2,-1.9858096E-2,3.7290833E0,-8.718299E-1,2.4044003E0,1.4885621E0,-1.195727E0,-3.2868445E0,3.2977134E-1,3.2444508E-3,-2.0453978E0,4.2436876E0,1.839686E0,-1.6493839E0,-1.9290039E-1,-2.677307E-1,1.0580398E0,8.453974E-1,3.2281644E0,-1.4256198E0,-7.118195E0,4.9631828E-1,-2.548637E0,-7.329243E-3,1.3900322E0,-3.583718E0,1.7479866E0,5.4102335E0,-3.483609E-1,-2.679628E0,1.351264E0,1.6782312E0,-1.0854656E0,-2.5610676E-1,1.3562794E-1,-1.3544784E0,1.2261612E0,2.7224302E-1,6.1538367E0,-3.2192256E0,3.0665493E-1,-6.113869E-1,-2.4396868E0,-1.6381328E-1,1.2674499E0,-1.6963157E-1,-9.686486E-1,-2.4567194E-2,1.9828638E-1,-2.4238564E-1,-1.5163345E0,1.3683217E0,-4.9432832E-1,4.8184606E-1,1.7879145E0,5.450596E-1,-1.0527331E0,-1.0759255E0,-5.1495202E-2,8.489515E-1,-2.8620678E-1,-1.3911013E-1,2.3472965E0,9.198996E-1,-5.607293E-1,-7.0834756E-1,-8.347161E-2,1.0128896E0,9.430512E-2,6.4925927E-1,-4.0492788E-1,2.826338E0,4.9673378E-1,8.14682E-2,-1.2479438E0,2.0753023E-1,-1.7652942E-2,1.2349243E0,-1.5358984E-1,-6.2535E-1,4.5027542E-1],"categories":[],"categories_nodes":[],"categories_segments":[],"categories_sizes":[],"default_left":[0,0,0,0,0,0,0,0,0,0,0,0,0,0,0,0,0,0,0,0,0,0,0,0,0,0,0,0,0,0,0,0,0,0,0,0,0,0,0,0,0,0,0,0,0,0,0,0,0,0,0,0,0,0,0,0,0,0,0,0,0,0,0,0,0,0,0,0,0,0,0,0,0,0,0,0,0,0,0,0,0,0,0,0,0,0,0],"id":17,"left_children":[1,3,5,7,9,11,13,15,17,19,21,23,-1,25,27,29,31,-1,33,35,37,39,-1,41,43,45,47,49,51,53,-1,55,57,59,61,63,65,67,69,-1,-1,71,73,75,77,79,81,-1,-1,83,85,-1,-1,-1,-1,-1,-1,-1,-1,-1,-1,-1,-1,-1,-1,